{"learner":{"attributes":{"scikit_learn":"{\"_estimator_type\": \"regressor\"}"},"feature_names":["ppg_mean","ppg_std","ppg_min","ppg_max","ppg_range","imu_mean","imu_std","imu_p95","imu_energy","acc_rms","ppg_bp_low","ppg_bp_hr","ppg_bp_high","ppg_bp_hr_norm","ppg_f_dom","imu_bp_low","imu_bp_high","imu_jerk_mean","imu_jerk_std","coherence_ppg_imu","ppg_entropy","imu_entropy","sqi","fusion_ppg_imu","hr_candidate","phase_id","sqi_flag","motion_weight","hr_cand_weighted","ppg_hr_smooth","artifact_ratio","phase"],"feature_types":["float","float","float","float","float","float","float","float","float","float","float","float","float","float","float","float","float","float","float","float","float","float","float","float","float","float","float","float","float","float","float","float"],"gradient_booster":{"model":{"gbtree_model_param":{"num_parallel_tree":"1","num_trees":"437"},"iteration_indptr":[0,1,2,3,4,5,6,7,8,9,10,11,12,13,14,15,16,17,18,19,20,21,22,23,24,25,26,27,28,29,30,31,32,33,34,35,36,37,38,39,40,41,42,43,44,45,46,47,48,49,50,51,52,53,54,55,56,57,58,59,60,61,62,63,64,65,66,67,68,69,70,71,72,73,74,75,76,77,78,79,80,81,82,83,84,85,86,87,88,89,90,91,92,93,94,95,96,97,98,99,100,101,102,103,104,105,106,107,108,109,110,111,112,113,114,115,116,117,118,119,120,121,122,123,124,125,126,127,128,129,130,131,132,133,134,135,136,137,138,139,140,141,142,143,144,145,146,147,148,149,150,151,152,153,154,155,156,157,158,159,160,161,162,163,164,165,166,167,168,169,170,171,172,173,174,175,176,177,178,179,180,181,182,183,184,185,186,187,188,189,190,191,192,193,194,195,196,197,198,199,200,201,202,203,204,205,206,207,208,209,210,211,212,213,214,215,216,217,218,219,220,221,222,223,224,225,226,227,228,229,230,231,232,233,234,235,236,237,238,239,240,241,242,243,244,245,246,247,248,249,250,251,252,253,254,255,256,257,258,259,260,261,262,263,264,265,266,267,268,269,270,271,272,273,274,275,276,277,278,279,280,281,282,283,284,285,286,287,288,289,290,291,292,293,294,295,296,297,298,299,300,301,302,303,304,305,306,307,308,309,310,311,312,313,314,315,316,317,318,319,320,321,322,323,324,325,326,327,328,329,330,331,332,333,334,335,336,337,338,339,340,341,342,343,344,345,346,347,348,349,350,351,352,353,354,355,356,357,358,359,360,361,362,363,364,365,366,367,368,369,370,371,372,373,374,375,376,377,378,379,380,381,382,383,384,385,386,387,388,389,390,391,392,393,394,395,396,397,398,399,400,401,402,403,404,405,406,407,408,409,410,411,412,413,414,415,416,417,418,419,420,421,422,423,424,425,426,427,428,429,430,431,432,433,434,435,436,437],"tree_info":[0,0,0,0,0,0,0,0,0,0,0,0,0,0,0,0,0,0,0,0,0,0,0,0,0,0,0,0,0,0,0,0,0,0,0,0,0,0,0,0,0,0,0,0,0,0,0,0,0,0,0,0,0,0,0,0,0,0,0,0,0,0,0,0,0,0,0,0,0,0,0,0,0,0,0,0,0,0,0,0,0,0,0,0,0,0,0,0,0,0,0,0,0,0,0,0,0,0,0,0,0,0,0,0,0,0,0,0,0,0,0,0,0,0,0,0,0,0,0,0,0,0,0,0,0,0,0,0,0,0,0,0,0,0,0,0,0,0,0,0,0,0,0,0,0,0,0,0,0,0,0,0,0,0,0,0,0,0,0,0,0,0,0,0,0,0,0,0,0,0,0,0,0,0,0,0,0,0,0,0,0,0,0,0,0,0,0,0,0,0,0,0,0,0,0,0,0,0,0,0,0,0,0,0,0,0,0,0,0,0,0,0,0,0,0,0,0,0,0,0,0,0,0,0,0,0,0,0,0,0,0,0,0,0,0,0,0,0,0,0,0,0,0,0,0,0,0,0,0,0,0,0,0,0,0,0,0,0,0,0,0,0,0,0,0,0,0,0,0,0,0,0,0,0,0,0,0,0,0,0,0,0,0,0,0,0,0,0,0,0,0,0,0,0,0,0,0,0,0,0,0,0,0,0,0,0,0,0,0,0,0,0,0,0,0,0,0,0,0,0,0,0,0,0,0,0,0,0,0,0,0,0,0,0,0,0,0,0,0,0,0,0,0,0,0,0,0,0,0,0,0,0,0,0,0,0,0,0,0,0,0,0,0,0,0,0,0,0,0,0,0,0,0,0,0,0,0,0,0,0,0,0,0,0,0,0,0,0,0,0,0,0,0,0,0,0,0,0,0,0,0,0,0,0,0,0,0,0,0,0,0,0,0,0,0,0,0,0,0,0,0,0,0,0,0,0,0,0,0,0,0,0,0,0,0,0,0],"trees":[{"base_weights":[1.5017751E-1,-7.920874E0,7.6910906E0,-1.5658919E1,-2.8167598E0,-1.10319395E1,1.0464373E1,3.7608604E0,-1.6998695E1,1.5150038E1,-6.5533204E0,-6.1038405E-1,-7.5284805E0,1.474193E0,1.2724112E1,-5.7752296E-2,7.7903695E0,-1.0057847E1,-1.8771282E1,2.3528955E1,5.9864216E0,-8.700889E0,1.2198755E1,-1.0225986E1,-4.024602E0,-7.4388103E0,6.237078E0,2.332002E1,1.0460298E1,3.9666563E-1,-3.8790967E-2,-6.038329E0,-1.1737156E1,-1.9194864E1,8.687497E-2,2.6337457E-1,7.801067E-1,-6.85617E-1,9.579361E0,3.8349457E0,-9.132231E0,2.3856659E-1,4.8455146E-1,-1.083404E1,-1.0524466E-1,-1.4464968E-1,-6.477749E-2,5.3593185E-2,-8.311382E0,8.755334E0,-3.3787506E0,2.178851E0,2.5205889E1,3.749165E0,1.325743E1,1.19591646E-1,-8.86174E0,-4.0736005E-1,-5.715309E0,-1.9812782E1,-1.0720996E1,7.850526E-2,-9.233033E-2,5.7069325E0,6.093789E-1,-7.9403475E-2,2.3672445E-1,-1.033083E1,-3.3413494E0,-2.129578E-1,-3.642538E-1,-8.815097E0,-7.0416965E-2,7.233993E0,6.316713E-1,-6.4028935E0,1.205296E-1,2.2174492E-1,-9.640351E-2,2.6032635E1,3.1319332E-1,9.928737E-1,3.9711416E-1,6.5292616E0,1.4941504E1,-3.3399323E-1,-7.972331E-2,-3.6331613E-2,-2.7545217E-1,-1.4373513E1,-2.046177E1,-3.8534632E-1,-1.8000205E-1,6.5193094E-2,6.4129634E0,-1.2483461E1,-7.0176816E0,-1.7340381E-1,-2.3076465E0,-9.388283E0,-1.2291589E-1,-8.221149E-2,7.9277167E0,-1.1418966E-1,-2.5300157E-1,4.1882086E-1,8.507019E-1,-1.0448771E1,2.6096435E0,3.1971627E-1,5.592219E0,1.0195955E1,1.8866137E1,-5.3976566E-1,-3.1750852E-1,-6.4728075E-1,-2.770256E-1,1.3436389E-1,2.6715094E-1,-4.8108655E-1,-2.641078E-1,-1.7644209E-1,-3.8565454E-1,-8.771983E-2,-4.6349335E-2,-1.4405668E-1,-3.0660897E-1,-6.431916E-2,2.7137545E-1,-2.1946868E-1,-4.3719497E-1,-3.8354192E-2,2.2640713E-1,8.131238E-2,2.0554917E-1,2.285322E-1,3.8894656E-1,6.4211965E-1,1.4412625E-1],"categories":[],"categories_nodes":[],"categories_segments":[],"categories_sizes":[],"default_left":[0,0,0,0,0,0,0,0,0,0,0,0,0,0,0,0,0,0,0,0,0,0,0,0,0,0,0,0,0,0,0,0,0,0,0,0,0,0,0,0,0,0,0,0,0,0,0,0,0,0,0,0,0,0,0,0,0,0,0,0,0,0,0,0,0,0,0,0,0,0,0,0,0,0,0,0,0,0,0,0,0,0,0,0,0,0,0,0,0,0,0,0,0,0,0,0,0,0,0,0,0,0,0,0,0,0,0,0,0,0,0,0,0,0,0,0,0,0,0,0,0,0,0,0,0,0,0,0,0,0,0,0,0,0,0,0,0,0,0],"id":0,"left_children":[1,3,5,7,9,11,13,15,17,19,21,-1,23,25,27,-1,29,31,33,35,37,39,41,43,45,47,49,51,53,-1,-1,55,57,59,-1,-1,-1,61,63,65,67,-1,-1,69,-1,-1,-1,-1,71,73,75,77,79,81,83,-1,85,-1,87,89,91,-1,-1,93,-1,-1,-1,95,97,-1,-1,99,-1,101,-1,103,-1,-1,-1,105,-1,107,-1,109,111,-1,-1,-1,-1,113,115,-1,-1,-1,117,119,121,-1,123,125,-1,-1,127,-1,-1,-1,-1,129,131,-1,133,135,137,-1,-1,-1,-1,-1,-1,-1,-1,-1,-1,-1,-1,-1,-1,-1,-1,-1,-1,-1,-1,-1,-1,-1,-1,-1,-1],"loss_changes":[6.979839E4,2.182623E4,3.0890371E4,5.787168E3,2.2568424E4,2.1303525E3,1.0475879E4,3.5313242E2,2.3454922E3,4.301241E3,1.1285691E4,0E0,4.828003E2,4.494715E3,9.663789E3,0E0,4.1294086E2,2.2178857E2,1.5445273E3,4.1522852E2,7.040791E2,1.3861094E3,3.1325146E2,8.7743164E1,1.7551788E1,3.1139893E2,1.6984861E3,2.8010781E3,6.3632656E3,0E0,0E0,4.4842072E2,1.5052197E2,6.2709375E2,0E0,0E0,0E0,8.572322E1,6.079689E2,2.3156291E2,1.6397988E3,0E0,0E0,7.3320312E0,0E0,0E0,0E0,0E0,7.912549E1,8.053301E2,3.4959448E2,2.0002899E2,5.7166797E2,2.4892295E3,2.6287383E3,0E0,1.0327759E2,0E0,8.1828705E1,2.3541406E2,2.7043335E1,0E0,0E0,2.1092834E1,0E0,0E0,0E0,1.3349883E3,8.122284E1,0E0,0E0,4.5473877E1,0E0,3.6327612E2,0E0,1.6846924E1,0E0,0E0,0E0,5.3408984E2,0E0,1.4797377E3,0E0,1.1113867E2,3.3829688E3,0E0,0E0,0E0,0E0,5.4903076E1,1.2934375E2,0E0,0E0,0E0,1.2868591E1,1.266582E3,5.1961816E2,0E0,6.361618E0,2.61792E0,0E0,0E0,3.6536816E2,0E0,0E0,0E0,0E0,1.882837E1,1.249851E3,0E0,1.0114368E2,4.7944434E2,2.3271133E3,0E0,0E0,0E0,0E0,0E0,0E0,0E0,0E0,0E0,0E0,0E0,0E0,0E0,0E0,0E0,0E0,0E0,0E0,0E0,0E0,0E0,0E0,0E0,0E0,0E0,0E0],"parents":[2147483647,0,0,1,1,2,2,3,3,4,4,5,5,6,6,7,7,8,8,9,9,10,10,12,12,13,13,14,14,16,16,17,17,18,18,19,19,20,20,21,21,22,22,23,23,24,24,25,25,26,26,27,27,28,28,31,31,32,32,33,33,37,37,38,38,39,39,40,40,43,43,48,48,49,49,50,50,51,51,52,52,53,53,54,54,56,56,58,58,59,59,60,60,63,63,67,67,68,68,71,71,73,73,75,75,79,79,81,81,83,83,84,84,89,89,90,90,94,94,95,95,96,96,98,98,99,99,102,102,107,107,108,108,110,110,111,111,112,112],"right_children":[2,4,6,8,10,12,14,16,18,20,22,-1,24,26,28,-1,30,32,34,36,38,40,42,44,46,48,50,52,54,-1,-1,56,58,60,-1,-1,-1,62,64,66,68,-1,-1,70,-1,-1,-1,-1,72,74,76,78,80,82,84,-1,86,-1,88,90,92,-1,-1,94,-1,-1,-1,96,98,-1,-1,100,-1,102,-1,104,-1,-1,-1,106,-1,108,-1,110,112,-1,-1,-1,-1,114,116,-1,-1,-1,118,120,122,-1,124,126,-1,-1,128,-1,-1,-1,-1,130,132,-1,134,136,138,-1,-1,-1,-1,-1,-1,-1,-1,-1,-1,-1,-1,-1,-1,-1,-1,-1,-1,-1,-1,-1,-1,-1,-1,-1,-1],"split_conditions":[5.4261345E-1,-9.9980795E-1,-7.1244717E-1,-1.0012954E0,9.8435825E-1,-9.9980795E-1,-9.9980795E-1,-9.778287E-1,-1.1779732E0,-1.8737636E0,1.4816394E0,-6.1038405E-1,1.034446E0,1.5594641E0,4.4115067E-2,-5.7752296E-2,-3.441552E-1,-1.482415E0,1.8796537E0,3.357745E-1,-9.846394E-1,-5.654909E-1,-3.5461202E-1,-5.392138E-1,-5.2651936E-1,-1.5521684E0,-1.6144867E0,-9.913866E-1,1.2602186E0,3.9666563E-1,-3.8790967E-2,-1.6335955E0,8.6440086E-1,1.1363385E0,8.687497E-2,2.6337457E-1,7.801067E-1,-1.5521684E0,7.2540516E-1,-5.8916014E-1,1.034446E0,2.3856659E-1,4.8455146E-1,-8.647607E-1,-1.0524466E-1,-1.4464968E-1,-6.477749E-2,5.3593185E-2,1.0967126E0,4.7993183E-1,-3.4696987E-1,9.23211E-2,3.2274026E-1,1.877112E0,-3.441552E-1,1.19591646E-1,4.8554996E-1,-4.0736005E-1,1.8058162E0,-3.221466E-1,1.4859178E0,7.850526E-2,-9.233033E-2,-4.404721E-1,6.093789E-1,-7.9403475E-2,2.3672445E-1,-1.6724913E-1,1.1516172E0,-2.129578E-1,-3.642538E-1,3.1765628E0,-7.0416965E-2,-9.0253705E-1,6.316713E-1,-1.347986E0,1.205296E-1,2.2174492E-1,-9.640351E-2,-1.9934133E0,3.1319332E-1,3.343305E-3,3.9711416E-1,4.8302227E-1,-3.2071963E-1,-3.3399323E-1,-7.972331E-2,-3.6331613E-2,-2.7545217E-1,-1.14164464E-1,4.081779E-1,-3.8534632E-1,-1.8000205E-1,6.5193094E-2,2.384128E-2,6.957127E-1,2.3467803E0,-1.7340381E-1,1.322163E-1,-1.0000393E0,-1.2291589E-1,-8.221149E-2,-2.3231578E0,-1.1418966E-1,-2.5300157E-1,4.1882086E-1,8.507019E-1,-4.4527507E-1,4.546565E-1,3.1971627E-1,2.3369682E0,1.5965555E0,4.1779244E-1,-5.3976566E-1,-3.1750852E-1,-6.4728075E-1,-2.770256E-1,1.3436389E-1,2.6715094E-1,-4.8108655E-1,-2.641078E-1,-1.7644209E-1,-3.8565454E-1,-8.771983E-2,-4.6349335E-2,-1.4405668E-1,-3.0660897E-1,-6.431916E-2,2.7137545E-1,-2.1946868E-1,-4.3719497E-1,-3.8354192E-2,2.2640713E-1,8.131238E-2,2.0554917E-1,2.285322E-1,3.8894656E-1,6.4211965E-1,1.4412625E-1],"split_indices":[21,25,7,25,25,25,25,14,2,20,14,0,14,16,9,0,13,3,6,1,25,27,3,1,15,3,2,14,7,0,0,20,5,29,0,0,0,3,6,6,14,0,0,29,0,0,0,0,21,29,2,5,2,14,13,0,6,0,5,3,13,0,0,1,0,0,0,1,14,0,0,15,0,13,0,20,0,0,0,2,0,7,0,16,1,0,0,0,0,17,21,0,0,0,20,14,3,0,13,25,0,0,2,0,0,0,0,15,29,0,16,27,2,0,0,0,0,0,0,0,0,0,0,0,0,0,0,0,0,0,0,0,0,0,0,0,0,0,0],"split_type":[0,0,0,0,0,0,0,0,0,0,0,0,0,0,0,0,0,0,0,0,0,0,0,0,0,0,0,0,0,0,0,0,0,0,0,0,0,0,0,0,0,0,0,0,0,0,0,0,0,0,0,0,0,0,0,0,0,0,0,0,0,0,0,0,0,0,0,0,0,0,0,0,0,0,0,0,0,0,0,0,0,0,0,0,0,0,0,0,0,0,0,0,0,0,0,0,0,0,0,0,0,0,0,0,0,0,0,0,0,0,0,0,0,0,0,0,0,0,0,0,0,0,0,0,0,0,0,0,0,0,0,0,0,0,0,0,0,0,0],"sum_hessian":[1.145E3,5.53E2,5.92E2,2.19E2,3.34E2,7.6E1,5.16E2,1.4E1,2.05E2,5.7E1,2.77E2,2.1E1,5.5E1,1.04E2,4.12E2,6E0,8E0,4.3E1,1.62E2,2.9E1,2.8E1,2.49E2,2.8E1,3E1,2.5E1,3.6E1,6.8E1,7.1E1,3.41E2,5E0,3E0,1.4E1,2.9E1,1.59E2,3E0,3E0,2.6E1,1E1,1.8E1,8E0,2.41E2,1.3E1,1.5E1,2.7E1,3E0,1.8E1,7E0,3E0,3.3E1,5.4E1,1.4E1,6E0,6.5E1,1.01E2,2.4E2,3E0,1.1E1,2.3E1,6E0,1.47E2,1.2E1,4E0,6E0,1.4E1,4E0,3E0,5E0,1.99E2,4.2E1,6E0,2.1E1,3E1,3E0,4.9E1,5E0,1E1,4E0,3E0,3E0,6.1E1,4E0,7.8E1,2.3E1,4.9E1,1.91E2,8E0,3E0,3E0,3E0,1.8E1,1.29E2,8E0,4E0,3E0,1.1E1,1.19E2,8E1,1.2E1,3E1,2.6E1,4E0,3E0,4.6E1,5E0,5E0,6E0,5.5E1,9E0,6.9E1,8E0,4.1E1,8.8E1,1.03E2,9E0,9E0,1.26E2,3E0,7E0,4E0,6.8E1,5.1E1,6.5E1,1.5E1,1.7E1,1.3E1,3E0,2.3E1,3E0,4.3E1,6E0,3E0,3.8E1,3.1E1,1.1E1,3E1,4E1,4.8E1,9.2E1,1.1E1],"tree_param":{"num_deleted":"0","num_feature":"32","num_nodes":"139","size_leaf_vector":"1"}},{"base_weights":[-2.681444E-1,-7.431704E0,8.583911E0,-1.1410744E1,7.211087E0,-9.234076E-1,1.2790598E1,-1.4656678E1,-5.063814E0,5.716599E0,1.7301788E1,-6.895488E0,7.1947E0,1.6897938E1,2.794844E0,3.106543E0,-1.5949502E1,-7.947579E0,-9.683564E-1,-3.2498652E-1,6.363715E0,8.0067885E-1,4.8900003E0,-1.21702585E1,-4.603708E0,1.2340114E1,2.3583464E-2,-3.1651585E0,1.8658283E1,-6.612959E0,7.6688547E0,-6.0400987E0,1.2066054E1,-1.9660015E1,-1.2971788E1,-1.9194703E-1,-8.725612E0,-2.9646232E0,4.2517614E0,8.129399E0,3.6345544E0,2.5764042E-1,-8.93112E-3,-6.2197085E-2,-1.4386035E1,-2.8569214E0,-1.0250443E1,2.21691E0,1.4107199E1,-6.514996E0,4.402614E0,-7.628736E0,4.9746532E0,2.0114847E1,-2.0473466E0,-8.378147E0,1.8694071E-1,6.607524E0,6.3187486E-1,-2.5658789E0,-3.8870683E-1,4.624208E-1,9.27822E-2,-4.326719E-1,-6.2873733E-1,-1.3526437E1,1.4387128E-1,-3.1159982E-1,-6.6708302E0,-2.1277254E0,-3.7710545E0,1.8616982E-1,7.2261125E-2,2.9218912E0,8.857826E0,-5.986552E-1,6.0786443E0,-2.3911425E-1,-4.8464164E-1,2.0695537E-1,-3.5867922E0,-2.2835667E-1,-4.6401134E-1,1.417099E-1,-1.4261014E-2,9.206879E0,1.8217306E1,-5.1288143E-2,-2.731225E-1,-5.8132533E-2,5.8143415E0,-1.47047E-1,-2.8946978E-1,2.862777E-1,-3.953465E-2,1.6911072E1,2.3576826E1,-1.6819134E-1,-2.4114717E-2,-9.78661E0,3.323671E-2,4.8445916E0,9.239294E0,-1.07993804E-1,-3.4150057E-2,-1.0906233E1,-1.6182339E1,-2.1820867E-1,-9.6489705E-2,-2.641028E0,2.8305794E-3,-1.381726E-1,-7.917514E-2,-9.280569E-2,1.8639891E-1,6.8065352E0,3.3477756E-1,1.0034349E-1,-1.5136369E-1,7.113595E0,-1.2201745E-2,-1.5773553E0,-6.0857277E0,2.101019E-1,3.714165E-1,3.0007595E-1,6.927058E-1,2.3365389E-1,1.0734829E-1,1.2845395E1,2.0840267E1,1.7850198E-1,2.4255444E1,-5.793926E-1,2.9928653E-2,-4.8255444E0,-3.8459215E-1,-5.1740773E-2,5.4136734E0,9.1212004E-2,3.1187567E-1,-3.9400065E-1,-1.6879475E-1,-6.2401927E-1,-4.372402E-1,-1.12306E-1,-5.492268E-2,2.3492037E-1,1.33462E-1,1.227285E-2,2.4906205E-1,-1.2341652E-1,4.387276E-2,-3.0409068E-1,-1.12330295E-1,2.9787455E-2,4.2145836E-1,7.8299415E-1,5.4278845E-1,7.938677E-1,6.167474E-1,-3.399057E-2,-0E0,-2.0195928E-1,-8.48764E-3,1.9824874E-1,9.859791E-2],"categories":[],"categories_nodes":[],"categories_segments":[],"categories_sizes":[],"default_left":[0,0,0,0,0,0,0,0,0,0,0,0,0,0,0,0,0,0,0,0,0,0,0,0,0,0,0,0,0,0,0,0,0,0,0,0,0,0,0,0,0,0,0,0,0,0,0,0,0,0,0,0,0,0,0,0,0,0,0,0,0,0,0,0,0,0,0,0,0,0,0,0,0,0,0,0,0,0,0,0,0,0,0,0,0,0,0,0,0,0,0,0,0,0,0,0,0,0,0,0,0,0,0,0,0,0,0,0,0,0,0,0,0,0,0,0,0,0,0,0,0,0,0,0,0,0,0,0,0,0,0,0,0,0,0,0,0,0,0,0,0,0,0,0,0,0,0,0,0,0,0,0,0,0,0,0,0,0,0,0,0,0,0,0,0,0,0],"id":1,"left_children":[1,3,5,7,9,11,13,15,17,19,21,23,25,27,29,31,33,35,37,-1,39,-1,41,43,45,47,49,51,53,55,57,59,61,63,65,-1,67,69,71,73,75,-1,-1,-1,77,79,81,83,85,87,89,91,93,95,97,99,-1,101,-1,103,-1,-1,-1,-1,-1,105,-1,-1,107,109,111,-1,-1,113,115,117,119,-1,-1,-1,121,-1,-1,-1,-1,123,125,-1,-1,-1,127,-1,-1,-1,-1,129,131,-1,133,135,-1,137,139,-1,-1,141,143,-1,-1,145,-1,-1,-1,-1,-1,147,-1,-1,-1,149,-1,151,153,-1,-1,-1,-1,-1,-1,155,157,-1,159,161,-1,163,-1,-1,165,-1,-1,-1,-1,-1,-1,-1,-1,-1,-1,-1,-1,-1,-1,-1,-1,-1,-1,-1,-1,-1,-1,-1,-1,-1,-1,-1,-1],"loss_changes":[7.2150805E4,3.6719668E4,2.037096E4,1.0117164E4,1.9314062E3,7.651837E3,1.4434594E4,7.559672E3,1.982646E3,1.2958044E3,1.6032144E3,1.0383745E3,2.4612056E3,8.888703E3,4.810993E3,1.9466093E3,3.118836E3,8.2813965E1,7.4954877E2,0E0,5.2007324E2,0E0,1.4328883E2,5.7169824E2,6.0601904E2,6.580947E2,8.523766E2,7.954686E2,6.9815938E3,8.441566E2,7.783303E2,2.2595535E2,2.4261353E2,5.4953125E1,1.7363438E3,0E0,9.8478516E1,2.4314514E1,4.8273315E1,2.3105078E2,4.9180157E2,0E0,0E0,0E0,4.057129E1,3.713732E2,9.060596E1,4.6839123E1,4.9482666E2,1.0911359E2,1.7029828E2,1.8398743E1,2.2050215E2,1.9988828E3,1.03670456E2,4.386963E2,0E0,2.5236768E2,0E0,5.5353127E0,0E0,0E0,0E0,0E0,0E0,9.8583984E2,0E0,0E0,4.42334E0,3.3480537E1,5.6812134E0,0E0,0E0,1.943654E2,1.4901709E2,3.033127E2,2.0664075E2,0E0,0E0,0E0,2.2737976E2,0E0,0E0,0E0,0E0,2.9126465E1,3.591543E2,0E0,0E0,0E0,2.9045288E1,0E0,0E0,0E0,0E0,1.5734883E3,1.0814414E3,0E0,6.214372E0,2.8160303E2,0E0,1.6153455E2,7.95564E1,0E0,0E0,7.3098535E2,4.0082617E2,0E0,0E0,1.03880005E1,0E0,0E0,0E0,0E0,0E0,1.8819946E1,0E0,0E0,0E0,1.3844714E2,0E0,2.0291776E2,1.5001825E2,0E0,0E0,0E0,0E0,0E0,0E0,4.0904785E2,4.137207E2,0E0,5.1953125E0,1.9469302E0,0E0,7.511482E1,0E0,0E0,5.5122437E1,0E0,0E0,0E0,0E0,0E0,0E0,0E0,0E0,0E0,0E0,0E0,0E0,0E0,0E0,0E0,0E0,0E0,0E0,0E0,0E0,0E0,0E0,0E0,0E0,0E0,0E0,0E0,0E0],"parents":[2147483647,0,0,1,1,2,2,3,3,4,4,5,5,6,6,7,7,8,8,9,9,10,10,11,11,12,12,13,13,14,14,15,15,16,16,17,17,18,18,20,20,22,22,23,23,24,24,25,25,26,26,27,27,28,28,29,29,30,30,31,31,32,32,33,33,34,34,36,36,37,37,38,38,39,39,40,40,44,44,45,45,46,46,47,47,48,48,49,49,50,50,51,51,52,52,53,53,54,54,55,55,57,57,59,59,65,65,68,68,69,69,70,70,73,73,74,74,75,75,76,76,80,80,85,85,86,86,90,90,95,95,96,96,98,98,99,99,101,101,102,102,105,105,106,106,109,109,115,115,119,119,121,121,122,122,129,129,130,130,132,132,133,133,135,135,138,138],"right_children":[2,4,6,8,10,12,14,16,18,20,22,24,26,28,30,32,34,36,38,-1,40,-1,42,44,46,48,50,52,54,56,58,60,62,64,66,-1,68,70,72,74,76,-1,-1,-1,78,80,82,84,86,88,90,92,94,96,98,100,-1,102,-1,104,-1,-1,-1,-1,-1,106,-1,-1,108,110,112,-1,-1,114,116,118,120,-1,-1,-1,122,-1,-1,-1,-1,124,126,-1,-1,-1,128,-1,-1,-1,-1,130,132,-1,134,136,-1,138,140,-1,-1,142,144,-1,-1,146,-1,-1,-1,-1,-1,148,-1,-1,-1,150,-1,152,154,-1,-1,-1,-1,-1,-1,156,158,-1,160,162,-1,164,-1,-1,166,-1,-1,-1,-1,-1,-1,-1,-1,-1,-1,-1,-1,-1,-1,-1,-1,-1,-1,-1,-1,-1,-1,-1,-1,-1,-1,-1,-1],"split_conditions":[-8.612001E-2,1.0991616E-1,-9.9220705E-1,1.2541195E0,4.809657E-1,7.390322E-1,3.3353546E-1,-2.0188155E0,1.7072502E0,4.6613094E-1,-1.733127E0,2.668147E-1,1.8193954E-1,-9.846394E-1,6.956592E-1,-7.5171196E-1,-8.147915E-1,-6.913016E-1,2.160381E0,-3.2498652E-1,-5.9263873E-1,8.0067885E-1,-8.134081E-2,-6.469131E-1,2.3467803E0,9.248182E-1,1.4437298E0,1.7999913E0,5.6919074E-1,1.6805865E0,8.4824115E-1,-8.0099475E-1,-2.2476944E-1,-9.7317034E-1,1.0001816E0,-1.9194703E-1,-2.7217567E-1,6.0330546E-1,-2.3352283E-1,-1.7450593E-1,-6.2959315E-3,2.5764042E-1,-8.93112E-3,-6.2197085E-2,-3.5461202E-1,2.7256998E-1,2.7084098E0,1.0893224E0,2.5734648E-1,5.185004E-1,1.3166579E0,-1.479936E-1,1.4721453E0,-1.0527281E-1,-4.5535827E-1,1.8106663E0,1.8694071E-1,1.7309264E0,6.3187486E-1,-2.4443452E0,-3.8870683E-1,4.624208E-1,9.27822E-2,-4.326719E-1,-6.2873733E-1,-3.333216E-1,1.4387128E-1,-3.1159982E-1,2.2065535E-3,4.5261803E-1,-6.34355E-1,1.8616982E-1,7.2261125E-2,-7.04859E-1,-8.590361E-1,-4.4970664E-1,1.21857345E-1,-2.3911425E-1,-4.8464164E-1,2.0695537E-1,2.9338846E-1,-2.2835667E-1,-4.6401134E-1,1.417099E-1,-1.4261014E-2,-2.3099029E-1,7.2360444E-1,-5.1288143E-2,-2.731225E-1,-5.8132533E-2,1.00836925E-1,-1.47047E-1,-2.8946978E-1,2.862777E-1,-3.953465E-2,9.537987E-1,-5.5341834E-1,-1.6819134E-1,5.6983554E-1,6.0658704E-2,3.323671E-2,1.3786542E0,4.4380748E-1,-1.07993804E-1,-3.4150057E-2,7.691273E-1,8.0098873E-1,-2.1820867E-1,-9.6489705E-2,-2.7974594E-1,2.8305794E-3,-1.381726E-1,-7.917514E-2,-9.280569E-2,1.8639891E-1,1.3820131E0,3.3477756E-1,1.0034349E-1,-1.5136369E-1,3.2948074E-1,-1.2201745E-2,4.115053E-1,2.0802517E-1,2.101019E-1,3.714165E-1,3.0007595E-1,6.927058E-1,2.3365389E-1,1.0734829E-1,-5.9564805E-1,-5.5840355E-1,1.7850198E-1,-1.5067099E-1,5.964688E-1,2.9928653E-2,-2.14184E-1,-3.8459215E-1,-5.1740773E-2,-2.7405417E-2,9.1212004E-2,3.1187567E-1,-3.9400065E-1,-1.6879475E-1,-6.2401927E-1,-4.372402E-1,-1.12306E-1,-5.492268E-2,2.3492037E-1,1.33462E-1,1.227285E-2,2.4906205E-1,-1.2341652E-1,4.387276E-2,-3.0409068E-1,-1.12330295E-1,2.9787455E-2,4.2145836E-1,7.8299415E-1,5.4278845E-1,7.938677E-1,6.167474E-1,-3.399057E-2,-0E0,-2.0195928E-1,-8.48764E-3,1.9824874E-1,9.859791E-2],"split_indices":[12,23,28,24,29,21,28,0,24,21,0,0,4,25,21,29,5,29,24,0,1,0,1,22,3,27,3,8,0,28,1,28,23,0,25,0,23,21,0,22,29,0,0,0,3,0,29,21,19,29,6,27,5,24,15,6,0,6,0,0,0,0,0,0,0,28,0,0,15,21,29,0,0,1,1,1,0,0,0,0,8,0,0,0,0,1,5,0,0,0,0,0,0,0,0,6,0,0,5,29,0,28,5,0,0,21,24,0,0,22,0,0,0,0,0,19,0,0,0,19,0,5,21,0,0,0,0,0,0,21,24,0,6,0,0,6,0,0,4,0,0,0,0,0,0,0,0,0,0,0,0,0,0,0,0,0,0,0,0,0,0,0,0,0,0,0,0],"split_type":[0,0,0,0,0,0,0,0,0,0,0,0,0,0,0,0,0,0,0,0,0,0,0,0,0,0,0,0,0,0,0,0,0,0,0,0,0,0,0,0,0,0,0,0,0,0,0,0,0,0,0,0,0,0,0,0,0,0,0,0,0,0,0,0,0,0,0,0,0,0,0,0,0,0,0,0,0,0,0,0,0,0,0,0,0,0,0,0,0,0,0,0,0,0,0,0,0,0,0,0,0,0,0,0,0,0,0,0,0,0,0,0,0,0,0,0,0,0,0,0,0,0,0,0,0,0,0,0,0,0,0,0,0,0,0,0,0,0,0,0,0,0,0,0,0,0,0,0,0,0,0,0,0,0,0,0,0,0,0,0,0,0,0,0,0,0,0],"sum_hessian":[1.136E3,6.28E2,5.08E2,4.94E2,1.34E2,1.56E2,3.52E2,3.26E2,1.68E2,1.18E2,1.6E1,9E1,6.6E1,2.49E2,1.03E2,2.2E1,3.04E2,9.8E1,7E1,4E0,1.14E2,9E0,7E0,2.6E1,6.4E1,3.8E1,2.8E1,2E1,2.29E2,3.5E1,6.8E1,1.1E1,1.1E1,1.33E2,1.71E2,3.2E1,6.6E1,5.1E1,1.9E1,6.8E1,4.6E1,4E0,3E0,5E0,2.1E1,5E1,1.4E1,6E0,3.2E1,1.1E1,1.7E1,1.3E1,7E0,2.14E2,1.5E1,3.1E1,4E0,6.4E1,4E0,8E0,3E0,8E0,3E0,1.1E1,1.22E2,1.66E2,5E0,3.9E1,2.7E1,2.7E1,2.4E1,9E0,1E1,9E0,5.9E1,1.7E1,2.9E1,4E0,1.7E1,3E0,4.7E1,1E1,4E0,3E0,3E0,1.6E1,1.6E1,4E0,7E0,3E0,1.4E1,6E0,7E0,4E0,3E0,1.14E2,1E2,5E0,1E1,2.7E1,4E0,4E1,2.4E1,4E0,4E0,8.6E1,8E1,2.4E1,3E0,2.2E1,5E0,1.4E1,1E1,3E0,6E0,3E1,2.9E1,9E0,8E0,2.5E1,4E0,2.7E1,2E1,1E1,6E0,6E0,1E1,7E0,7E0,5.8E1,5.6E1,4E0,9.6E1,7E0,3E0,1E1,1.7E1,3E0,3.7E1,3E0,2.1E1,6.5E1,2.1E1,2.7E1,5.3E1,9E0,1.3E1,2.2E1,8E0,3E0,2.2E1,1.5E1,1.2E1,7E0,1.3E1,3E0,5.5E1,2.3E1,3.3E1,7.4E1,2.2E1,3E0,4E0,7E0,3E0,2.5E1,1.2E1],"tree_param":{"num_deleted":"0","num_feature":"32","num_nodes":"167","size_leaf_vector":"1"}},{"base_weights":[1.03969984E-1,-7.3080378E0,9.016914E0,-1.0915233E1,7.596784E0,-7.0201683E-1,1.3178941E1,-1.4127237E1,-4.746201E0,1.5961452E1,5.889647E0,-6.561245E0,7.291663E0,1.6599169E1,3.324396E0,1.00976504E-1,-1.546233E1,-5.9965806E0,5.0451946E0,2.0213037E1,8.4054574E-2,-2.5318773E0,6.446516E0,-7.498309E-2,-7.6491833E0,1.2456554E1,2.6997644E-1,-9.0936416E-1,1.8100101E1,-7.242098E0,7.921957E0,-7.642386E0,1.1788218E1,-1.8988287E1,-1.2754009E1,-7.547973E0,-2.9239523E0,1.9342338E-1,9.2522405E-2,3.6965257E-1,7.7080667E-1,8.511469E-2,-2.3000434E-1,7.4437943E0,3.3093736E0,1.0070694E-1,-1.7568462E0,-1.0107405E1,-4.244405E0,7.491797E0,1.8187895E1,-7.0142064E0,4.4898176E0,6.90575E0,-4.287369E0,1.3561984E1,2.161924E1,-1.4619349E0,-1.0198531E1,6.1484325E-1,6.659068E0,-6.5349974E-2,-9.603085E0,9.588668E-2,4.4942722E-1,-4.0480328E-1,-6.074951E-1,-1.4893936E1,-8.062111E0,-7.8437757E0,-4.6591118E-2,-3.1360242E0,-2.0550894E-2,4.715655E0,8.473858E0,4.5087733E0,-7.1830444E-2,-7.058752E-2,-1.0044562E-2,9.446395E-3,-1.1467197E1,1.4900154E-1,-5.2765827E0,2.6882904E0,9.11399E0,3.100984E-1,7.2277266E-1,-7.116432E-2,-2.655487E-1,-5.6734003E-2,5.818271E0,1.0960029E-1,2.6810205E-1,-7.8616085E0,-1.3446481E0,1.4644865E1,-2.3972492E-1,2.273168E1,7.890245E-1,2.0321141E-1,-5.2963543E0,-4.0721E-1,-3.5356526E0,4.6972938E0,3.0385056E-1,-3.5255957E-1,-9.4892904E-2,-1.5333669E1,-7.936367E0,-4.799464E0,-4.6070167E-1,-1.8460888E-1,-8.772029E0,-4.0156775E0,-2.5155745E0,-9.057318E-2,6.092357E0,9.461831E0,1.7141838E-1,2.4451625E0,2.1844085E-1,-4.3069324E-1,-7.721758E0,-7.573232E0,-9.862194E-1,3.583711E-2,1.08330846E-1,2.032644E-1,3.631954E-1,2.3072577E-1,1.0437159E-1,-1.2160862E-1,-3.0902272E-1,1.0655429E-4,-7.38244E-2,1.5451829E1,1.0818875E0,9.065101E-1,2.1749855E1,-7.259261E-2,1.4588916E-1,-2.2880636E-1,-4.36627E-2,-1.4626852E-1,-4.4820618E-2,5.1773486E0,-2.0525403E-2,-4.144038E-1,-5.722526E-1,-3.04782E-1,-1.4269231E-1,-2.2393766E-1,1.1845386E-1,-3.043301E-1,-1.9024146E-1,-1.380683E-1,-4.4932086E-2,-9.339432E-2,-3.1124752E-2,2.118008E-1,8.801354E-2,3.0664444E-1,1.3326317E-1,1.1147775E-1,-0E0,-3.2688996E-1,-1.05218485E-1,-2.5936145E-1,-8.143825E-2,-9.664237E-2,1.1137709E-2,5.0080484E-1,-3.8583573E-2,-8.0731586E-2,1.453306E-1,2.6916593E-1,7.092562E-1,1.8470037E-1,9.340387E-2],"categories":[],"categories_nodes":[],"categories_segments":[],"categories_sizes":[],"default_left":[0,0,0,0,0,0,0,0,0,0,0,0,0,0,0,0,0,0,0,0,0,0,0,0,0,0,0,0,0,0,0,0,0,0,0,0,0,0,0,0,0,0,0,0,0,0,0,0,0,0,0,0,0,0,0,0,0,0,0,0,0,0,0,0,0,0,0,0,0,0,0,0,0,0,0,0,0,0,0,0,0,0,0,0,0,0,0,0,0,0,0,0,0,0,0,0,0,0,0,0,0,0,0,0,0,0,0,0,0,0,0,0,0,0,0,0,0,0,0,0,0,0,0,0,0,0,0,0,0,0,0,0,0,0,0,0,0,0,0,0,0,0,0,0,0,0,0,0,0,0,0,0,0,0,0,0,0,0,0,0,0,0,0,0,0,0,0,0,0,0,0,0,0,0,0,0,0,0,0],"id":2,"left_children":[1,3,5,7,9,11,13,15,17,19,21,23,25,27,29,31,33,35,37,39,-1,41,43,45,47,49,51,53,55,57,59,61,63,65,67,69,71,-1,-1,-1,-1,-1,-1,73,75,-1,77,79,81,83,85,87,89,91,93,95,97,99,101,-1,103,-1,105,-1,-1,-1,-1,107,109,111,-1,113,-1,115,117,119,-1,-1,-1,-1,121,-1,123,125,127,-1,-1,-1,-1,-1,129,-1,-1,131,133,135,-1,137,139,-1,141,-1,143,145,-1,-1,-1,147,149,151,-1,-1,153,155,157,-1,159,161,-1,163,-1,-1,165,167,169,-1,-1,-1,-1,-1,-1,-1,-1,-1,-1,171,173,-1,175,-1,-1,-1,-1,-1,-1,177,-1,-1,-1,-1,-1,-1,-1,-1,-1,-1,-1,-1,-1,-1,-1,-1,-1,-1,-1,-1,-1,-1,-1,-1,-1,-1,-1,-1,-1,-1,-1,-1,-1],"loss_changes":[7.477146E4,3.329847E4,2.0803383E4,9.794215E3,1.6285796E3,7.2981694E3,1.2068906E4,6.220297E3,2.1325833E3,1.0611504E3,4.9497388E2,6.2939355E2,2.3796538E3,7.039008E3,4.614285E3,2.6999055E3,2.6165156E3,7.027676E2,2.5210571E1,2.6715576E2,0E0,1.9524321E2,2.714536E2,8.12222E1,5.964341E2,9.401841E2,9.155388E2,6.03571E2,3.6411172E3,4.736339E2,8.409512E2,1.7005994E2,2.162666E2,7.191406E1,1.6038281E3,1.6486133E2,2.1361328E1,0E0,0E0,0E0,0E0,0E0,0E0,1.5816577E2,1.7803168E2,0E0,4.91074E0,6.311084E2,3.3808276E2,1.4160193E2,4.5894385E2,5.2028625E1,1.7014883E2,4.744751E0,1.5233563E2,2.6306992E3,3.142418E3,3.6289276E2,3.01938E2,0E0,3.1393384E2,0E0,1.0111499E2,0E0,0E0,0E0,0E0,2.3386133E2,1.1373904E3,1.1809961E2,0E0,1.3177734E1,0E0,2.4725757E2,9.525659E1,8.544626E1,0E0,0E0,0E0,0E0,2.2431445E2,0E0,2.927553E2,1.9412842E0,2.4883545E1,0E0,0E0,0E0,0E0,0E0,3.275006E1,0E0,0E0,1.2369263E1,1.4906782E1,1.1233613E3,0E0,1.9289844E2,1.0618981E2,0E0,4.7684372E1,0E0,6.870476E0,1.0568933E2,0E0,0E0,0E0,4.3518945E2,5.541809E0,8.1148395E2,0E0,0E0,9.776953E1,9.017548E0,1.693602E1,0E0,1.8806763E1,1.7421387E1,0E0,3.5682846E1,0E0,0E0,1.6047772E2,4.4270264E1,3.613521E1,0E0,0E0,0E0,0E0,0E0,0E0,0E0,0E0,0E0,0E0,9.169121E2,1.0197717E2,0E0,1.174293E3,0E0,0E0,0E0,0E0,0E0,0E0,3.5649597E1,0E0,0E0,0E0,0E0,0E0,0E0,0E0,0E0,0E0,0E0,0E0,0E0,0E0,0E0,0E0,0E0,0E0,0E0,0E0,0E0,0E0,0E0,0E0,0E0,0E0,0E0,0E0,0E0,0E0,0E0,0E0,0E0,0E0],"parents":[2147483647,0,0,1,1,2,2,3,3,4,4,5,5,6,6,7,7,8,8,9,9,10,10,11,11,12,12,13,13,14,14,15,15,16,16,17,17,18,18,19,19,21,21,22,22,23,23,24,24,25,25,26,26,27,27,28,28,29,29,30,30,31,31,32,32,33,33,34,34,35,35,36,36,43,43,44,44,46,46,47,47,48,48,49,49,50,50,51,51,52,52,53,53,54,54,55,55,56,56,57,57,58,58,60,60,62,62,67,67,68,68,69,69,71,71,73,73,74,74,75,75,80,80,82,82,83,83,84,84,90,90,93,93,94,94,95,95,97,97,98,98,100,100,102,102,103,103,107,107,108,108,109,109,112,112,113,113,114,114,116,116,117,117,119,119,122,122,123,123,124,124,135,135,136,136,138,138,145,145],"right_children":[2,4,6,8,10,12,14,16,18,20,22,24,26,28,30,32,34,36,38,40,-1,42,44,46,48,50,52,54,56,58,60,62,64,66,68,70,72,-1,-1,-1,-1,-1,-1,74,76,-1,78,80,82,84,86,88,90,92,94,96,98,100,102,-1,104,-1,106,-1,-1,-1,-1,108,110,112,-1,114,-1,116,118,120,-1,-1,-1,-1,122,-1,124,126,128,-1,-1,-1,-1,-1,130,-1,-1,132,134,136,-1,138,140,-1,142,-1,144,146,-1,-1,-1,148,150,152,-1,-1,154,156,158,-1,160,162,-1,164,-1,-1,166,168,170,-1,-1,-1,-1,-1,-1,-1,-1,-1,-1,172,174,-1,176,-1,-1,-1,-1,-1,-1,178,-1,-1,-1,-1,-1,-1,-1,-1,-1,-1,-1,-1,-1,-1,-1,-1,-1,-1,-1,-1,-1,-1,-1,-1,-1,-1,-1,-1,-1,-1,-1,-1,-1],"split_conditions":[-8.5669324E-2,2.4175839E-1,-9.9220705E-1,8.865716E-1,-1.0004613E0,7.390322E-1,3.3353546E-1,-1.482415E0,2.160381E0,9.5720977E-1,8.47413E-1,-1.0083159E0,1.8193954E-1,-3.577077E-1,6.956592E-1,-1.3721194E-2,-7.788938E-1,1.7072502E0,-9.034325E-2,-7.494826E-2,8.4054574E-2,-6.8245804E-1,-9.325996E-2,-7.5389475E-2,3.71495E-1,3.341818E-1,1.4437298E0,-8.7227136E-2,2.3936927E-1,-7.3008366E-2,4.125197E-1,-9.7516286E-1,-1.0050082E0,-9.231592E-1,4.4426334E-1,2.1024129E-1,1.0211068E0,1.9342338E-1,9.2522405E-2,3.6965257E-1,7.7080667E-1,8.511469E-2,-2.3000434E-1,-1.7450593E-1,1.044482E0,1.0070694E-1,-1.010809E0,-9.5660925E-2,5.2114254E-1,-1.057074E-1,1.0893224E0,-1.2522729E-1,1.3166579E0,-2.634483E-1,2.2174063E-1,1.3802226E0,6.022343E-1,-1.9750041E-1,1.1574664E0,6.1484325E-1,8.9249486E-1,-6.5349974E-2,1.4242694E0,9.588668E-2,4.4942722E-1,-4.0480328E-1,-6.074951E-1,7.3037964E-1,-1.0527281E-1,-1.0252076E-1,-4.6591118E-2,-4.538275E-1,-2.0550894E-2,-7.04859E-1,2.8498774E0,-8.883529E-2,-7.1830444E-2,-7.058752E-2,-1.0044562E-2,9.446395E-3,5.437511E-2,1.4900154E-1,-1.3997595E-1,2.4126676E-1,-2.3099029E-1,3.100984E-1,7.2277266E-1,-7.116432E-2,-2.655487E-1,-5.6734003E-2,8.092886E-1,1.0960029E-1,2.6810205E-1,-3.8059175E-2,7.300668E-1,3.3184975E-1,-2.3972492E-1,-6.9345725E-1,6.517723E-1,2.0321141E-1,-8.386535E-2,-4.0721E-1,3.7974615E0,1.413595E0,3.0385056E-1,-3.5255957E-1,-9.4892904E-2,-1.2611474E-1,-8.313285E-2,-3.5723817E-1,-4.6070167E-1,-1.8460888E-1,-4.2054647E-1,-1.9552626E-1,1.1757141E-1,-9.057318E-2,2.0271237E0,-5.0899965E-1,1.7141838E-1,-2.3513705E-1,2.1844085E-1,-4.3069324E-1,-4.1215923E-2,-9.9905235E-1,-7.788762E-2,3.583711E-2,1.08330846E-1,2.032644E-1,3.631954E-1,2.3072577E-1,1.0437159E-1,-1.2160862E-1,-3.0902272E-1,1.0655429E-4,-7.38244E-2,1.4721453E0,6.7846245E-1,9.065101E-1,-5.261723E-1,-7.259261E-2,1.4588916E-1,-2.2880636E-1,-4.36627E-2,-1.4626852E-1,-4.4820618E-2,-2.7405417E-2,-2.0525403E-2,-4.144038E-1,-5.722526E-1,-3.04782E-1,-1.4269231E-1,-2.2393766E-1,1.1845386E-1,-3.043301E-1,-1.9024146E-1,-1.380683E-1,-4.4932086E-2,-9.339432E-2,-3.1124752E-2,2.118008E-1,8.801354E-2,3.0664444E-1,1.3326317E-1,1.1147775E-1,-0E0,-3.2688996E-1,-1.05218485E-1,-2.5936145E-1,-8.143825E-2,-9.664237E-2,1.1137709E-2,5.0080484E-1,-3.8583573E-2,-8.0731586E-2,1.453306E-1,2.6916593E-1,7.092562E-1,1.8470037E-1,9.340387E-2],"split_indices":[12,23,28,28,28,21,28,3,24,5,21,28,4,21,21,1,5,24,11,11,0,1,2,12,2,18,3,11,2,11,28,8,28,2,21,6,5,0,0,0,0,0,0,22,23,0,28,11,2,17,21,10,6,23,2,22,2,2,5,0,18,0,21,0,0,0,0,3,24,11,0,22,0,1,30,12,0,0,0,0,21,0,30,1,1,0,0,0,0,0,1,0,0,2,1,3,0,6,5,0,12,0,1,8,0,0,0,3,11,22,0,0,17,1,2,0,7,1,0,22,0,0,23,28,10,0,0,0,0,0,0,0,0,0,0,5,1,0,6,0,0,0,0,0,0,4,0,0,0,0,0,0,0,0,0,0,0,0,0,0,0,0,0,0,0,0,0,0,0,0,0,0,0,0,0,0,0,0,0],"split_type":[0,0,0,0,0,0,0,0,0,0,0,0,0,0,0,0,0,0,0,0,0,0,0,0,0,0,0,0,0,0,0,0,0,0,0,0,0,0,0,0,0,0,0,0,0,0,0,0,0,0,0,0,0,0,0,0,0,0,0,0,0,0,0,0,0,0,0,0,0,0,0,0,0,0,0,0,0,0,0,0,0,0,0,0,0,0,0,0,0,0,0,0,0,0,0,0,0,0,0,0,0,0,0,0,0,0,0,0,0,0,0,0,0,0,0,0,0,0,0,0,0,0,0,0,0,0,0,0,0,0,0,0,0,0,0,0,0,0,0,0,0,0,0,0,0,0,0,0,0,0,0,0,0,0,0,0,0,0,0,0,0,0,0,0,0,0,0,0,0,0,0,0,0,0,0,0,0,0,0],"sum_hessian":[1.13E3,6.17E2,5.13E2,4.97E2,1.2E2,1.54E2,3.59E2,3.26E2,1.71E2,1.9E1,1.01E2,8.9E1,6.5E1,2.66E2,9.3E1,2.8E1,2.98E2,1.52E2,1.9E1,1.4E1,5E0,6E0,9.5E1,1.3E1,7.6E1,3.7E1,2.8E1,2.1E1,2.45E2,2.8E1,6.5E1,1.7E1,1.1E1,1.27E2,1.71E2,1E2,5.2E1,1.1E1,8E0,6E0,8E0,3E0,3E0,7.1E1,2.4E1,4E0,9E0,4.3E1,3.3E1,2.1E1,1.6E1,1E1,1.8E1,6E0,1.5E1,1.09E2,1.36E2,1E1,1.8E1,5E0,6E1,5E0,1.2E1,3E0,8E0,1E1,1.17E2,1.16E2,5.5E1,9.5E1,5E0,4.7E1,5E0,2.1E1,5E1,2E1,4E0,6E0,3E0,5E0,3.8E1,3E0,3E1,6E0,1.5E1,7E0,9E0,3E0,7E0,3E0,1.5E1,3E0,3E0,6E0,9E0,1.04E2,5E0,1.29E2,7E0,3E0,7E0,1.2E1,6E0,3.8E1,2.2E1,9E0,3E0,1.08E2,8E0,3.8E1,1.7E1,3.3E1,6.2E1,1.7E1,3E1,3E0,1.8E1,3.6E1,1.4E1,1.2E1,8E0,2.2E1,1.6E1,1.9E1,1.1E1,3E0,3E0,9E0,6E0,8E0,7E0,3E0,3E0,4E0,5E0,9.8E1,6E0,1.4E1,1.15E2,4E0,3E0,4E0,3E0,3E0,3E0,3.5E1,3E0,6.6E1,4.2E1,4E0,4E0,3E1,8E0,4.4E1,1.8E1,1.4E1,3E0,2.2E1,8E0,1.4E1,4E0,3.3E1,3E0,8E0,4E0,9E0,7E0,1.6E1,3E0,4E0,7E0,9.5E1,3E0,3E0,3E0,8E0,1.07E2,2.5E1,1E1],"tree_param":{"num_deleted":"0","num_feature":"32","num_nodes":"179","size_leaf_vector":"1"}},{"base_weights":[6.712254E-2,-6.601243E0,8.485489E0,-1.0310223E1,6.031523E0,-7.747291E-1,1.2673151E1,-1.3639624E1,-4.4873996E0,9.169438E0,1.5794028E0,-5.9075484E0,7.8729944E0,1.6064926E1,3.0547585E0,3.7653759E0,-1.5079387E1,-5.9954085E0,4.4361744E0,7.1257744E0,7.5596327E-1,-3.269943E0,5.189685E0,-6.9742723E0,-1.9904798E-1,1.118698E1,1.1780933E0,-6.7118125E0,1.7487164E1,-6.49857E0,7.4912467E0,-4.6761417E0,4.1926458E-1,-1.8223503E1,-1.26700115E1,-7.339202E0,-2.9693594E0,5.3621416E0,4.7681157E-2,-8.0529384E-2,7.8405933E0,-6.554755E0,3.9701796E0,-7.7197924E-2,6.237656E0,-3.4843785E-1,-8.383131E0,-1.7431685E0,1.6269644E-1,6.5305495E0,1.7137682E1,-1.879902E-1,3.8139775E0,-2.5403989E-3,-8.202153E0,1.882179E1,-1.4861288E0,-6.830971E-1,-9.81859E0,6.4127183E0,6.0003823E-1,-6.7212963E-1,-8.562099E0,-3.9175037E-1,-5.864224E-1,-1.3688853E1,-3.3530166E0,-7.6038413E0,-8.135076E-3,-3.5113597E0,-2.037424E0,1.8475409E-1,7.8632675E-2,8.245268E0,-3.029046E-2,-4.19914E0,-3.8780484E-1,-0E0,1.8689412E-1,2.657903E-1,4.2534432E0,-2.3250833E0,1.3760334E-1,-1.2318593E1,-5.9307375E0,-9.280299E-1,-1.0852496E-1,2.5205538E0,8.367186E0,2.867224E-1,1.9744534E1,5.0971923E0,-3.6353145E-2,-1.4168248E-1,-3.1117254E-1,2.8463829E0,1.9386017E1,-1.6200979E-1,-0E0,-3.8151414E0,1.3689324E-1,-3.9117062E-1,-3.4526346E0,4.860201E0,8.8783E0,-5.852484E-2,2.6211107E-2,-3.7680966E-1,-9.2610106E-2,-1.1360541E1,-1.5650753E1,-3.3561817E-1,2.2098033E0,-1.8137637E-1,-8.365053E0,-3.8127391E0,-5.019723E-2,-7.572016E-2,-1.883155E-2,9.573501E0,1.6779327E-1,-5.0564623E0,-1.4478073E-2,-1.6300324E-2,5.22029E0,-1.0625011E-2,-1.0074673E-1,-1.4217333E1,-1.1302812E-1,-4.360665E0,-1.0410031E1,-4.6180833E-2,-0E0,1.3936669E-1,2.003147E-4,1.9553149E-1,3.4156618E-1,3.8898015E-1,7.30753E-1,2.0989628E-1,1.0147741E-1,2.5988305E-1,-1.8501559E-1,1.6564028E1,2.224951E1,-7.354264E-1,6.0446475E-2,-1.5488681E-1,-4.2612333E-2,-1.4274982E-1,-4.3742355E-2,5.80822E0,2.735515E0,4.73136E0,3.174455E-1,-3.74049E-1,-1.843873E-1,-5.8931935E-1,-4.0858814E-1,2.496708E-1,-6.541548E-2,-3.0896983E-1,-2.1059087E-1,-4.8027635E-2,-1.2635714E-1,2.5418344E-1,3.9723894E-1,-1.8773347E-1,-4.9954068E-2,1.0308432E-1,1.9842146E-1,-2.1210253E-1,-4.725577E-1,-1.7176852E-1,1.7801437E-1,-4.731529E-1,-2.136616E-1,6.482159E-1,4.442363E-1,7.1967125E-1,2.6840526E-1,-0E0,-4.3574512E-2,8.167053E-2,2.0145361E-1,2.6219795E-2,9.8164864E-2,5.1354434E-2,2.059449E-1],"categories":[],"categories_nodes":[],"categories_segments":[],"categories_sizes":[],"default_left":[0,0,0,0,0,0,0,0,0,0,0,0,0,0,0,0,0,0,0,0,0,0,0,0,0,0,0,0,0,0,0,0,0,0,0,0,0,0,0,0,0,0,0,0,0,0,0,0,0,0,0,0,0,0,0,0,0,0,0,0,0,0,0,0,0,0,0,0,0,0,0,0,0,0,0,0,0,0,0,0,0,0,0,0,0,0,0,0,0,0,0,0,0,0,0,0,0,0,0,0,0,0,0,0,0,0,0,0,0,0,0,0,0,0,0,0,0,0,0,0,0,0,0,0,0,0,0,0,0,0,0,0,0,0,0,0,0,0,0,0,0,0,0,0,0,0,0,0,0,0,0,0,0,0,0,0,0,0,0,0,0,0,0,0,0,0,0,0,0,0,0,0,0,0,0,0,0,0,0,0,0,0,0,0,0,0,0,0,0],"id":3,"left_children":[1,3,5,7,9,11,13,15,17,19,21,23,25,27,29,31,33,35,37,39,-1,41,43,45,47,49,51,53,55,57,59,61,-1,63,65,67,69,71,-1,-1,73,75,77,-1,79,81,83,85,-1,87,89,-1,91,-1,93,95,97,99,101,103,-1,105,107,-1,-1,109,111,113,-1,115,117,-1,-1,119,-1,121,-1,-1,-1,-1,123,125,-1,127,129,131,-1,133,135,-1,137,139,-1,-1,-1,141,143,-1,145,147,-1,-1,149,151,153,-1,-1,-1,-1,155,157,-1,159,-1,161,163,-1,-1,-1,165,-1,167,-1,-1,169,-1,-1,171,-1,173,175,-1,-1,-1,-1,-1,-1,-1,-1,-1,-1,-1,-1,177,179,181,-1,-1,-1,-1,-1,183,185,187,-1,-1,-1,-1,-1,-1,-1,-1,-1,-1,-1,-1,-1,-1,-1,-1,-1,-1,-1,-1,-1,-1,-1,-1,-1,-1,-1,-1,-1,-1,-1,-1,-1,-1,-1],"loss_changes":[6.4884457E4,3.0275648E4,1.9828082E4,9.606012E3,2.0329229E3,7.138721E3,1.1424742E4,7.9993906E3,2.486323E3,2.4540479E3,1.1002998E3,6.0899976E2,1.3099434E3,8.5319375E3,3.9822964E3,2.0847905E3,1.9917188E3,6.122739E2,6.1168945E1,5.5442773E2,0E0,6.6495435E2,3.0416168E2,7.8482764E2,1.4699095E2,9.905542E2,4.1514963E2,1.5172937E2,6.2370312E3,5.651826E2,6.780464E2,2.0574783E2,0E0,1.2780859E2,1.5518145E3,1.9577148E2,1.5483429E1,1.2163696E1,0E0,0E0,2.6777197E2,2.0277783E2,6.9951126E1,0E0,1.0226355E2,1.5713635E2,5.978491E2,1.4038517E1,0E0,1.5059491E2,1.711831E2,0E0,1.09196884E2,0E0,3.3145264E1,2.0003203E3,9.3944244E1,2.0324269E2,2.732102E2,1.821997E2,0E0,1.6296152E1,9.3317444E1,0E0,0E0,5.1708984E2,7.598893E2,9.118555E1,0E0,8.49881E0,8.338684E0,0E0,0E0,2.0907861E2,0E0,4.24068E1,0E0,0E0,0E0,0E0,9.2471344E1,1.8017685E1,0E0,3.7150513E2,2.6606616E2,5.623831E0,0E0,4.0570942E1,1.4081299E1,0E0,2.9629883E1,1.2982452E1,0E0,0E0,0E0,4.7083685E2,1.4286641E3,0E0,1.990715E1,1.215522E1,0E0,0E0,6.446747E0,5.8979675E1,6.2171265E1,0E0,0E0,0E0,0E0,1.5866504E2,4.1801953E2,0E0,2.8866122E2,0E0,1.048042E2,3.7426147E0,0E0,0E0,0E0,1.0268701E2,0E0,2.5561493E1,0E0,0E0,9.705444E0,0E0,0E0,3.0404297E1,0E0,4.2227032E2,7.765259E1,0E0,0E0,0E0,0E0,0E0,0E0,0E0,0E0,0E0,0E0,0E0,0E0,8.438828E2,8.716914E2,4.139579E0,0E0,0E0,0E0,0E0,0E0,3.1295532E1,5.8330765E0,2.481186E1,0E0,0E0,0E0,0E0,0E0,0E0,0E0,0E0,0E0,0E0,0E0,0E0,0E0,0E0,0E0,0E0,0E0,0E0,0E0,0E0,0E0,0E0,0E0,0E0,0E0,0E0,0E0,0E0,0E0,0E0,0E0,0E0,0E0,0E0,0E0],"parents":[2147483647,0,0,1,1,2,2,3,3,4,4,5,5,6,6,7,7,8,8,9,9,10,10,11,11,12,12,13,13,14,14,15,15,16,16,17,17,18,18,19,19,21,21,22,22,23,23,24,24,25,25,26,26,27,27,28,28,29,29,30,30,31,31,33,33,34,34,35,35,36,36,37,37,40,40,41,41,42,42,44,44,45,45,46,46,47,47,49,49,50,50,52,52,54,54,55,55,56,56,57,57,58,58,59,59,61,61,62,62,65,65,66,66,67,67,69,69,70,70,73,73,75,75,80,80,81,81,83,83,84,84,85,85,87,87,88,88,90,90,91,91,95,95,96,96,98,98,99,99,102,102,103,103,104,104,109,109,110,110,112,112,114,114,115,115,119,119,121,121,124,124,127,127,129,129,130,130,143,143,144,144,145,145,151,151,152,152,153,153],"right_children":[2,4,6,8,10,12,14,16,18,20,22,24,26,28,30,32,34,36,38,40,-1,42,44,46,48,50,52,54,56,58,60,62,-1,64,66,68,70,72,-1,-1,74,76,78,-1,80,82,84,86,-1,88,90,-1,92,-1,94,96,98,100,102,104,-1,106,108,-1,-1,110,112,114,-1,116,118,-1,-1,120,-1,122,-1,-1,-1,-1,124,126,-1,128,130,132,-1,134,136,-1,138,140,-1,-1,-1,142,144,-1,146,148,-1,-1,150,152,154,-1,-1,-1,-1,156,158,-1,160,-1,162,164,-1,-1,-1,166,-1,168,-1,-1,170,-1,-1,172,-1,174,176,-1,-1,-1,-1,-1,-1,-1,-1,-1,-1,-1,-1,178,180,182,-1,-1,-1,-1,-1,184,186,188,-1,-1,-1,-1,-1,-1,-1,-1,-1,-1,-1,-1,-1,-1,-1,-1,-1,-1,-1,-1,-1,-1,-1,-1,-1,-1,-1,-1,-1,-1,-1,-1,-1,-1,-1],"split_conditions":[-8.549035E-2,1.3739619E0,-9.9220705E-1,8.865716E-1,-1.733127E0,8.5280204E-1,3.3353546E-1,-2.0188155E0,2.160381E0,-1.8874387E0,-9.9980795E-1,-1.0050082E0,1.8193954E-1,-9.9980795E-1,6.8073195E-1,-1.0303928E-1,-8.147915E-1,1.7072502E0,3.2958402E-3,-2.5271945E0,7.5596327E-1,3.7800783E-1,4.1008085E-1,-1.0059215E0,4.296012E-1,3.341818E-1,1.0697892E0,-1.6437867E0,5.6919074E-1,-7.3008366E-2,8.4824115E-1,-2.763378E-1,4.1926458E-1,-9.7317034E-1,9.8081297E-1,3.603459E-2,1.116339E-1,-1.0816345E-1,4.7681157E-2,-8.0529384E-2,6.322717E-2,5.521551E-2,8.598799E-1,-7.7197924E-2,1.7072502E0,9.402552E-1,2.616577E-1,7.300668E-1,1.6269644E-1,9.248182E-1,-2.2041997E-1,-1.879902E-1,5.7856697E-1,-2.5403989E-3,-1.479936E-1,-3.577077E-1,-4.5535827E-1,-4.2075908E-1,1.1574664E0,1.4835497E0,6.0003823E-1,-5.937893E-1,4.575448E-1,-3.9175037E-1,-5.864224E-1,-1.520847E-1,-2.0772946E-1,-1.0252076E-1,-8.135076E-3,1.0211068E0,-1.3830264E-1,1.8475409E-1,7.8632675E-2,1.333566E0,-3.029046E-2,7.575184E-1,-3.8780484E-1,-0E0,1.8689412E-1,2.657903E-1,2.160381E0,-7.028786E-1,1.3760334E-1,5.200522E-1,2.7085714E0,9.8781526E-1,-1.0852496E-1,-7.730045E-2,-2.3099029E-1,2.867224E-1,-2.2625608E0,1.00836925E-1,-3.6353145E-2,-1.4168248E-1,-3.1117254E-1,2.398751E-1,-1.0527281E-1,-1.6200979E-1,1.4167185E0,-1.5026343E-1,1.3689324E-1,-3.9117062E-1,3.7974615E0,-2.7405417E-2,-1.2034833E-1,-5.852484E-2,2.6211107E-2,-3.7680966E-1,-9.2610106E-2,4.2661577E-1,-3.456535E-1,-3.3561817E-1,3.8963623E-2,-1.8137637E-1,-5.0028896E-1,-3.499726E-1,-5.019723E-2,-7.572016E-2,-1.883155E-2,-6.786821E-1,1.6779327E-1,-1.0527281E-1,-1.4478073E-2,-1.6300324E-2,5.521551E-2,-1.0625011E-2,-1.0074673E-1,-2.1028687E-1,-1.1302812E-1,1.0935644E0,-8.704162E-1,-4.6180833E-2,-0E0,1.3936669E-1,2.003147E-4,1.9553149E-1,3.4156618E-1,3.8898015E-1,7.30753E-1,2.0989628E-1,1.0147741E-1,2.5988305E-1,-1.8501559E-1,-5.5840355E-1,5.41285E-1,1.7502154E-1,6.0446475E-2,-1.5488681E-1,-4.2612333E-2,-1.4274982E-1,-4.3742355E-2,-2.9732755E-1,9.7619504E-1,1.0508324E0,3.174455E-1,-3.74049E-1,-1.843873E-1,-5.8931935E-1,-4.0858814E-1,2.496708E-1,-6.541548E-2,-3.0896983E-1,-2.1059087E-1,-4.8027635E-2,-1.2635714E-1,2.5418344E-1,3.9723894E-1,-1.8773347E-1,-4.9954068E-2,1.0308432E-1,1.9842146E-1,-2.1210253E-1,-4.725577E-1,-1.7176852E-1,1.7801437E-1,-4.731529E-1,-2.136616E-1,6.482159E-1,4.442363E-1,7.1967125E-1,2.6840526E-1,-0E0,-4.3574512E-2,8.167053E-2,2.0145361E-1,2.6219795E-2,9.8164864E-2,5.1354434E-2,2.059449E-1],"split_indices":[12,7,28,28,0,21,28,0,24,0,25,28,4,25,21,11,5,24,13,0,0,1,18,28,7,18,4,0,0,11,1,5,0,0,21,16,13,10,0,0,1,0,1,0,24,19,0,1,0,27,13,0,10,0,27,21,15,4,5,27,0,7,7,0,0,0,0,11,0,5,0,0,0,19,0,5,0,0,0,0,24,13,0,21,4,25,0,27,1,0,0,0,0,0,0,4,24,0,0,13,0,0,1,4,15,0,0,0,0,27,21,0,0,0,15,8,0,0,0,4,0,24,0,0,0,0,0,10,0,10,19,0,0,0,0,0,0,0,0,0,0,0,0,24,18,1,0,0,0,0,0,10,5,5,0,0,0,0,0,0,0,0,0,0,0,0,0,0,0,0,0,0,0,0,0,0,0,0,0,0,0,0,0,0,0,0,0,0,0],"split_type":[0,0,0,0,0,0,0,0,0,0,0,0,0,0,0,0,0,0,0,0,0,0,0,0,0,0,0,0,0,0,0,0,0,0,0,0,0,0,0,0,0,0,0,0,0,0,0,0,0,0,0,0,0,0,0,0,0,0,0,0,0,0,0,0,0,0,0,0,0,0,0,0,0,0,0,0,0,0,0,0,0,0,0,0,0,0,0,0,0,0,0,0,0,0,0,0,0,0,0,0,0,0,0,0,0,0,0,0,0,0,0,0,0,0,0,0,0,0,0,0,0,0,0,0,0,0,0,0,0,0,0,0,0,0,0,0,0,0,0,0,0,0,0,0,0,0,0,0,0,0,0,0,0,0,0,0,0,0,0,0,0,0,0,0,0,0,0,0,0,0,0,0,0,0,0,0,0,0,0,0,0,0,0,0,0,0,0,0,0],"sum_hessian":[1.154E3,6.44E2,5.1E2,4.98E2,1.46E2,1.59E2,3.51E2,3.16E2,1.82E2,8.5E1,6.1E1,1E2,5.9E1,2.59E2,9.2E1,2.4E1,2.92E2,1.56E2,2.6E1,7.6E1,9E0,2.6E1,3.5E1,8.4E1,1.6E1,3.9E1,2E1,1.5E1,2.44E2,2.9E1,6.3E1,1.3E1,1.1E1,1.24E2,1.68E2,1.07E2,4.9E1,1.9E1,7E0,5E0,7.1E1,1.8E1,8E0,4E0,3.1E1,1.5E1,6.9E1,1.3E1,3E0,2.3E1,1.6E1,5E0,1.5E1,3E0,1.2E1,2.28E2,1.6E1,1.1E1,1.8E1,5.9E1,4E0,7E0,6E0,1.2E1,1.12E2,1.51E2,1.7E1,1.03E2,4E0,2.9E1,2E1,1.5E1,4E0,6.8E1,3E0,1.4E1,4E0,3E0,5E0,1.3E1,1.8E1,1.1E1,4E0,2.5E1,4.4E1,1E1,3E0,8E0,1.5E1,5E0,1.1E1,1.2E1,3E0,5E0,7E0,8E0,2.2E2,4E0,1.2E1,7E0,4E0,1.2E1,6E0,3.8E1,2.1E1,4E0,3E0,3E0,3E0,7.2E1,7.9E1,7E0,1E1,3.3E1,7E1,2.4E1,5E0,1.5E1,5E0,4.5E1,2.3E1,1.1E1,3E0,3E0,1.5E1,4E0,7E0,2E1,5E0,3.4E1,1E1,6E0,4E0,4E0,4E0,1E1,5E0,5E0,6E0,5E0,7E0,5E0,3E0,1.14E2,1.06E2,9E0,3E0,4E0,3E0,3E0,3E0,2.5E1,1.3E1,6E0,1.5E1,6.4E1,8E0,3.3E1,4.6E1,4E0,6E0,3.4E1,3.6E1,3E0,2.1E1,3.3E1,1.2E1,8E0,3E0,7E0,8E0,3E0,1.7E1,3.1E1,3E0,3E0,7E0,3.9E1,7.5E1,1E2,6E0,5E0,4E0,5E0,2E1,3E0,1E1,3E0,3E0],"tree_param":{"num_deleted":"0","num_feature":"32","num_nodes":"189","size_leaf_vector":"1"}},{"base_weights":[-2.7870985E-2,-6.9370694E0,8.0407915E0,-1.0296365E1,5.8429704E0,-7.7685404E-1,1.1921227E1,-1.368121E1,-4.0578814E0,-6.1958365E0,6.4863224E0,-6.5742335E0,7.041489E0,1.5393311E1,3.0933483E0,1.8734803E0,-1.491886E1,-5.3098254E0,3.8696158E0,-4.0421423E-2,-2.9797074E-1,8.251262E0,3.7785625E0,-1.1167695E1,-4.213532E0,2.9734075E0,1.2901051E1,1.6635458E1,-2.2727885E0,-5.344469E0,7.4579935E0,-5.5717E0,9.850669E0,-1.7823322E1,-1.2468329E1,1.6026954E-1,-5.633684E0,5.3126163E0,-1.4411847E-1,7.120179E0,6.229905E-1,-3.193035E0,6.0773187E0,-1.956834E0,-4.1626793E-1,-2.6813233E0,-9.916336E0,8.613665E0,-1.575303E0,9.656914E0,7.330329E-1,1.2019493E1,2.0870502E1,-2.0507987E-1,-5.743576E-1,2.3315176E-1,-6.733124E0,5.841289E-1,6.3087206E0,-2.3859763E0,-3.1966498E-1,4.274382E-1,-2.956183E-2,-3.8034254E-1,-5.7307017E-1,-1.0179654E1,-1.4902077E1,-7.1426263E0,-2.7942116E0,2.161985E-1,5.7364255E-2,4.2339993E0,7.99722E0,-4.683571E0,3.688876E-2,2.1704717E0,6.7320867E0,-8.936259E-3,-9.4728574E-2,-2.622801E-1,-5.6024866E0,-1.2120705E1,-1.2416604E-1,1.9319837E-1,3.518314E-1,-6.7703114E0,1.9335022E0,3.520324E-2,1.0862388E1,1.3189174E1,-5.840522E0,1.2585958E1,2.1882957E1,-1.4606036E0,5.899233E-2,-7.8580446E0,3.1912956E-2,3.4225805E0,7.4478354E0,-1.012602E-1,-3.0655596E-2,-1.169204E1,-5.2509904E0,-1.8324732E1,-3.928101E-1,-8.3745775E0,-5.9415364E0,-1.2876017E-1,-2.2433183E0,1.6985114E-1,-3.5639502E-2,4.9228797E0,8.918558E0,-5.808029E-2,-1.748956E-1,8.7015495E-2,2.8479163E-2,4.120059E-2,7.2327933E0,4.3925257E0,-2.2617972E0,-2.8612474E-1,-3.4903061E0,-4.408231E-1,-1.9428797E-1,-2.641724E-1,-6.597415E-2,1.0578119E-1,-9.784566E-2,5.0730026E-1,2.6811692E-1,1.0567871E0,1.4364595E1,-2.572058E-1,-8.625849E-2,1.9796368E-1,4.2445213E-1,7.0142937E-1,2.0377833E-1,-0E0,-2.2454157E0,-1.1300189E1,-4.774847E0,1.1488657E-1,4.4305988E-2,1.3616443E-1,8.3201685E0,-2.8664517E-1,-4.3969363E-1,-2.2156943E-1,-7.31388E-2,-2.7925438E-1,-6.1030644E-1,-1.5400435E-1,-2.7524158E-1,-1.917734E-1,-6.829721E-2,-7.702668E-2,-1.7495794E-2,5.741389E-2,1.8614374E-1,3.1907052E-1,2.1172975E-1,2.4935247E-1,1.4779845E-1,3.334745E-1,-8.000947E-2,-3.2003626E-2,-1.8783769E-1,-2.2400161E-2,-1.9236766E-1,4.3816134E-2,-5.3925563E-2,2.2996852E-1,-2.4641801E-1,4.7125742E-1,-5.6568634E-2,-3.0348886E-2,-8.9295655E-2,-1.8152355E-1,-3.876482E-1,-1.8973513E-1,-4.245807E-2,2.7420932E-1,1.5071467E-1],"categories":[],"categories_nodes":[],"categories_segments":[],"categories_sizes":[],"default_left":[0,0,0,0,0,0,0,0,0,0,0,0,0,0,0,0,0,0,0,0,0,0,0,0,0,0,0,0,0,0,0,0,0,0,0,0,0,0,0,0,0,0,0,0,0,0,0,0,0,0,0,0,0,0,0,0,0,0,0,0,0,0,0,0,0,0,0,0,0,0,0,0,0,0,0,0,0,0,0,0,0,0,0,0,0,0,0,0,0,0,0,0,0,0,0,0,0,0,0,0,0,0,0,0,0,0,0,0,0,0,0,0,0,0,0,0,0,0,0,0,0,0,0,0,0,0,0,0,0,0,0,0,0,0,0,0,0,0,0,0,0,0,0,0,0,0,0,0,0,0,0,0,0,0,0,0,0,0,0,0,0,0,0,0,0,0,0,0,0,0,0,0,0,0,0,0,0,0,0,0,0,0,0,0,0],"id":4,"left_children":[1,3,5,7,9,11,13,15,17,19,21,23,25,27,29,31,33,35,37,-1,-1,39,41,43,45,47,49,51,53,55,57,59,61,63,65,-1,67,69,-1,71,-1,73,75,77,-1,79,81,83,85,87,-1,89,91,-1,93,-1,95,-1,97,99,-1,-1,-1,-1,-1,101,103,105,107,-1,-1,109,111,113,-1,115,117,-1,-1,119,121,123,-1,-1,-1,125,127,-1,129,131,133,135,137,139,-1,141,-1,143,145,-1,-1,147,149,151,-1,153,155,-1,157,-1,-1,159,161,-1,-1,-1,-1,-1,163,165,167,-1,169,-1,-1,-1,-1,-1,171,-1,-1,173,175,-1,-1,-1,-1,-1,-1,-1,177,179,181,-1,-1,-1,183,-1,-1,-1,-1,-1,-1,-1,-1,-1,-1,-1,-1,-1,-1,-1,-1,-1,-1,-1,-1,-1,-1,-1,-1,-1,-1,-1,-1,-1,-1,-1,-1,-1,-1,-1,-1,-1,-1],"loss_changes":[6.331857E4,2.6327361E4,1.7941016E4,1.0178762E4,1.0272124E3,7.3348306E3,1.110018E4,6.0760195E3,1.7255728E3,9.497388E1,5.473208E2,9.558408E2,1.5984902E3,5.767922E3,3.8639685E3,1.4719863E3,1.8515625E3,5.292656E2,3.147843E2,0E0,0E0,8.1594434E2,8.1904407E2,5.7226E2,5.182146E2,1.0915275E3,7.270615E2,4.5216797E3,1.22456856E2,6.8265454E2,7.653225E2,1.611676E2,5.0720898E2,1.3453125E2,7.4421875E2,0E0,5.9697656E2,9.9210205E1,0E0,1.34073E2,0E0,9.112637E1,7.852588E1,9.609016E0,0E0,3.5495776E2,1.1638672E2,4.818457E1,4.5043872E2,2.1753906E2,0E0,2.5580488E3,7.865078E2,0E0,3.253626E1,0E0,2.9820605E2,0E0,1.8065723E2,5.288471E0,0E0,0E0,0E0,0E0,0E0,5.7483887E2,3.8669727E2,8.552002E1,2.5597595E1,0E0,0E0,1.2252228E2,9.6336426E1,1.15204315E1,0E0,8.497009E-1,7.29126E1,0E0,0E0,2.767833E2,1.3470984E2,1.2097168E1,0E0,0E0,0E0,5.466223E1,4.594748E1,0E0,1.04362305E2,1.5730801E3,3.0981934E1,7.1921387E0,7.28875E2,1.1551357E1,0E0,2.4850659E2,0E0,2.1550903E0,8.126294E1,0E0,0E0,2.570166E2,9.602905E1,1.423623E2,0E0,1.5728027E1,1.7905396E1,0E0,1.1163986E1,0E0,0E0,2.9445648E1,3.15708E1,0E0,0E0,0E0,0E0,0E0,1.1546387E1,4.1641257E2,8.718423E1,0E0,1.0907649E2,0E0,0E0,0E0,0E0,0E0,1.9158813E1,0E0,0E0,6.639007E2,1.1584668E3,0E0,0E0,0E0,0E0,0E0,0E0,0E0,6.032562E-1,9.703369E-1,6.242331E1,0E0,0E0,0E0,5.7280273E0,0E0,0E0,0E0,0E0,0E0,0E0,0E0,0E0,0E0,0E0,0E0,0E0,0E0,0E0,0E0,0E0,0E0,0E0,0E0,0E0,0E0,0E0,0E0,0E0,0E0,0E0,0E0,0E0,0E0,0E0,0E0,0E0,0E0,0E0,0E0,0E0,0E0,0E0],"parents":[2147483647,0,0,1,1,2,2,3,3,4,4,5,5,6,6,7,7,8,8,9,9,10,10,11,11,12,12,13,13,14,14,15,15,16,16,17,17,18,18,21,21,22,22,23,23,24,24,25,25,26,26,27,27,28,28,29,29,30,30,31,31,32,32,33,33,34,34,36,36,37,37,39,39,41,41,42,42,43,43,45,45,46,46,47,47,48,48,49,49,51,51,52,52,54,54,56,56,58,58,59,59,65,65,66,66,67,67,68,68,71,71,72,72,73,73,75,75,76,76,79,79,80,80,81,81,85,85,86,86,88,88,89,89,90,90,91,91,92,92,93,93,95,95,97,97,98,98,101,101,102,102,103,103,105,105,106,106,108,108,111,111,112,112,118,118,119,119,120,120,122,122,128,128,131,131,132,132,140,140,141,141,142,142,146,146],"right_children":[2,4,6,8,10,12,14,16,18,20,22,24,26,28,30,32,34,36,38,-1,-1,40,42,44,46,48,50,52,54,56,58,60,62,64,66,-1,68,70,-1,72,-1,74,76,78,-1,80,82,84,86,88,-1,90,92,-1,94,-1,96,-1,98,100,-1,-1,-1,-1,-1,102,104,106,108,-1,-1,110,112,114,-1,116,118,-1,-1,120,122,124,-1,-1,-1,126,128,-1,130,132,134,136,138,140,-1,142,-1,144,146,-1,-1,148,150,152,-1,154,156,-1,158,-1,-1,160,162,-1,-1,-1,-1,-1,164,166,168,-1,170,-1,-1,-1,-1,-1,172,-1,-1,174,176,-1,-1,-1,-1,-1,-1,-1,178,180,182,-1,-1,-1,184,-1,-1,-1,-1,-1,-1,-1,-1,-1,-1,-1,-1,-1,-1,-1,-1,-1,-1,-1,-1,-1,-1,-1,-1,-1,-1,-1,-1,-1,-1,-1,-1,-1,-1,-1,-1,-1,-1],"split_conditions":[-8.612001E-2,1.2232059E-1,-9.9220705E-1,6.957127E-1,4.6613094E-1,7.390322E-1,3.3353546E-1,-2.0188155E0,1.4816394E0,-1.3625621E0,3.1036004E-1,2.668147E-1,4.624785E-1,5.6919074E-1,6.956592E-1,-1.0303928E-1,-8.147915E-1,-7.022831E-1,2.2644851E0,-4.0421423E-2,-2.9797074E-1,-7.494826E-2,6.957127E-1,-6.469131E-1,2.3467803E0,-2.2084756E-1,6.853896E-1,2.3936927E-1,-1.405049E-1,-7.726737E-1,-1.194877E0,-8.1644917E-1,3.357745E-1,-9.7317034E-1,-5.337959E-1,1.6026954E-1,1.0552233E0,-9.0218425E-2,-1.4411847E-1,-9.0687585E-1,6.229905E-1,3.064772E0,4.1242072E-1,-2.0924277E0,-4.1626793E-1,2.9338846E-1,-1.4078374E-1,-2.3099029E-1,9.149544E-1,6.930472E-1,7.330329E-1,1.3802226E0,-7.5715125E-1,-2.0507987E-1,7.3537725E-1,2.3315176E-1,1.8106663E0,5.841289E-1,-1.2289344E-1,-2.4443452E0,-3.1966498E-1,4.274382E-1,-2.956183E-2,-3.8034254E-1,-5.7307017E-1,7.895584E-1,2.376642E-1,3.6230393E-2,-5.2526706E-1,2.161985E-1,5.7364255E-2,2.108591E0,-2.9708263E-1,2.7531055E-1,3.688876E-2,1.0316182E0,7.141505E-1,-8.936259E-3,-9.4728574E-2,5.1896316E-1,2.0802517E-1,1.4660084E0,-1.2416604E-1,1.9319837E-1,3.518314E-1,-5.1340014E-1,-1.0074978E0,3.520324E-2,9.1021466E-1,-2.3976019E-1,-1.9949475E-1,-5.703416E-1,1.6169903E0,7.171141E-2,5.899233E-2,6.957127E-1,3.1912956E-2,-4.166084E-2,2.890412E-1,-1.012602E-1,-3.0655596E-2,-2.325636E-1,2E0,-7.022831E-1,-3.928101E-1,-1.0252076E-1,2.1024129E-1,-1.2876017E-1,1.0020977E0,1.6985114E-1,-3.5639502E-2,-9.274064E-2,-3.7154892E-1,-5.808029E-2,-1.748956E-1,8.7015495E-2,2.8479163E-2,4.120059E-2,1.0442497E0,-4.4307902E-1,1.1174178E0,-2.8612474E-1,-4.2586733E-2,-4.408231E-1,-1.9428797E-1,-2.641724E-1,-6.597415E-2,1.0578119E-1,1.0893224E0,5.0730026E-1,2.6811692E-1,-2.9021192E-1,1.4721453E0,-2.572058E-1,-8.625849E-2,1.9796368E-1,4.2445213E-1,7.0142937E-1,2.0377833E-1,-0E0,5.964688E-1,-9.7087324E-1,5.233161E-1,1.1488657E-1,4.4305988E-2,1.3616443E-1,4.777654E-1,-2.8664517E-1,-4.3969363E-1,-2.2156943E-1,-7.31388E-2,-2.7925438E-1,-6.1030644E-1,-1.5400435E-1,-2.7524158E-1,-1.917734E-1,-6.829721E-2,-7.702668E-2,-1.7495794E-2,5.741389E-2,1.8614374E-1,3.1907052E-1,2.1172975E-1,2.4935247E-1,1.4779845E-1,3.334745E-1,-8.000947E-2,-3.2003626E-2,-1.8783769E-1,-2.2400161E-2,-1.9236766E-1,4.3816134E-2,-5.3925563E-2,2.2996852E-1,-2.4641801E-1,4.7125742E-1,-5.6568634E-2,-3.0348886E-2,-8.9295655E-2,-1.8152355E-1,-3.876482E-1,-1.8973513E-1,-4.245807E-2,2.7420932E-1,1.5071467E-1],"split_indices":[12,23,28,14,21,21,28,0,14,0,20,0,19,0,21,11,5,0,14,0,0,11,14,22,3,1,20,2,30,8,20,14,1,0,14,0,14,11,0,20,0,6,20,0,0,8,30,1,21,6,0,22,19,0,5,0,6,0,30,0,0,0,0,0,0,21,14,2,16,0,0,7,22,18,0,8,6,0,0,0,21,0,0,0,0,19,28,0,19,21,2,28,19,19,0,14,0,12,19,0,0,3,31,0,0,11,6,0,5,0,0,12,28,0,0,0,0,0,22,6,2,0,12,0,0,0,0,0,21,0,0,8,5,0,0,0,0,0,0,0,0,21,8,0,0,0,2,0,0,0,0,0,0,0,0,0,0,0,0,0,0,0,0,0,0,0,0,0,0,0,0,0,0,0,0,0,0,0,0,0,0,0,0,0,0],"split_type":[0,0,0,0,0,0,0,0,0,0,0,0,0,0,0,0,0,0,0,0,0,0,0,0,0,0,0,0,0,0,0,0,0,0,0,0,0,0,0,0,0,0,0,0,0,0,0,0,0,0,0,0,0,0,0,0,0,0,0,0,0,0,0,0,0,0,0,0,0,0,0,0,0,0,0,0,0,0,0,0,0,0,0,0,0,0,0,0,0,0,0,0,0,0,0,0,0,0,0,0,0,0,0,0,0,0,0,0,0,0,0,0,0,0,0,0,0,0,0,0,0,0,0,0,0,0,0,0,0,0,0,0,0,0,0,0,0,0,0,0,0,0,0,0,0,0,0,0,0,0,0,0,0,0,0,0,0,0,0,0,0,0,0,0,0,0,0,0,0,0,0,0,0,0,0,0,0,0,0,0,0,0,0,0,0],"sum_hessian":[1.134E3,6.11E2,5.23E2,4.84E2,1.27E2,1.6E2,3.63E2,3.13E2,1.71E2,6E0,1.21E2,9.2E1,6.8E1,2.6E2,1.03E2,2.3E1,2.9E2,1.48E2,2.3E1,3E0,3E0,7.2E1,4.9E1,3E1,6.2E1,4.1E1,2.7E1,2.43E2,1.7E1,3.5E1,6.8E1,1.2E1,1.1E1,1.3E2,1.6E2,4E0,1.44E2,2E1,3E0,6.7E1,5E0,1.2E1,3.7E1,6E0,2.4E1,5E1,1.2E1,1.8E1,2.3E1,2.2E1,5E0,1.18E2,1.25E2,4E0,1.3E1,3E0,3.2E1,5E0,6.3E1,8E0,4E0,8E0,3E0,1.2E1,1.18E2,8.5E1,7.5E1,9.3E1,5.1E1,1.3E1,7E0,1.7E1,5E1,9E0,3E0,6E0,3.1E1,3E0,3E0,2.8E1,2.2E1,8E0,4E0,1.1E1,7E0,9E0,1.4E1,3E0,1.9E1,1.11E2,7E0,1.5E1,1.1E2,1E1,3E0,2.8E1,4E0,1.9E1,4.4E1,4E0,4E0,6.4E1,2.1E1,2.8E1,4.7E1,4.3E1,5E1,1.3E1,3.8E1,1.4E1,3E0,1.3E1,3.7E1,3E0,6E0,3E0,3E0,3E0,2.8E1,8E0,2E1,7E0,1.5E1,5E0,3E0,6E0,3E0,8E0,6E0,4E0,1.5E1,1E1,1.01E2,3E0,4E0,3E0,1.2E1,1.06E2,4E0,4E0,6E0,1.2E1,1.6E1,1.6E1,3E0,1.1E1,3.3E1,3.3E1,3.1E1,1.2E1,9E0,4E0,2.4E1,6E0,3.7E1,4.7E1,3E0,3.3E1,5E0,4E0,9E0,2.1E1,1.6E1,2E1,8E0,4E0,4E0,1.6E1,4E0,8E0,7E0,3E0,3E0,6E0,4E0,9.7E1,4E0,3E0,3E0,3E0,9E0,1.1E1,5E0,2.8E1,5E0],"tree_param":{"num_deleted":"0","num_feature":"32","num_nodes":"185","size_leaf_vector":"1"}},{"base_weights":[-1.4152905E-1,-7.349829E0,5.592694E0,-8.9890175E0,1.1136873E1,-9.453912E0,8.358415E0,-1.3934889E1,-5.1304307E0,6.6439843E-1,-8.368749E0,-1.6375847E1,-6.810218E0,6.083843E-1,1.0443461E1,4.1184688E0,-1.5180335E1,7.2464366E0,-6.8013167E0,-9.973189E0,-4.3457873E-2,-3.2401675E-1,-5.521268E-1,-8.466711E0,-3.2198563E0,-7.143784E0,5.109332E0,1.334338E1,3.3305416E0,-1.9993677E0,9.0647135E0,-9.506955E0,-1.6756918E1,4.519837E-1,8.781725E0,-1.5225935E0,-8.083118E0,-3.5390395E-1,-1.4042853E-1,-9.229401E0,-1.5405558E-1,-1.2015391E-1,-1.6558176E0,4.640213E-2,-7.8405085E0,6.8115516E0,-2.636956E0,1.4523145E1,-2.3640823E0,-3.2470255E0,5.011774E0,-0E0,-1.140565E-1,3.898948E-1,8.021127E-2,-1.0639266E1,-3.058022E0,-1.7443188E1,-9.988588E0,8.7815456E-2,-5.8096256E-2,5.2226105E0,4.130669E-1,1.8638383E-1,-2.1693554E0,-9.124509E0,-9.122524E-1,-1.6920418E-1,-1.0166477E1,-6.403428E-2,-1.6725449E-2,-8.858107E0,-3.8897777E0,-2.420296E0,8.06188E0,-5.48282E0,1.0889201E-1,1.1220253E1,2.0077904E1,2.4564664E0,-1.1256265E1,-7.56997E0,3.638494E-1,3.674618E0,2.606086E-1,-1.3461684E-1,-3.5991472E-1,3.673092E-2,-1.873145E-1,-2.4651475E-1,-5.5363977E-1,-4.13714E-1,-3.9724684E0,1.8559633E-1,7.614186E-2,-3.3875425E0,6.373016E-1,-9.79338E0,-1.8040826E0,2.6075056E0,-3.4712896E0,-2.0901941E-1,-3.4172454E-1,-1.6573307E-1,-9.5013E0,-5.1169448E-2,-1.5871969E-1,-0E0,-1.2545232E-1,6.2267613E0,6.8659395E-1,-2.2111674E-1,-1.0123153E-1,-4.088465E0,1.1868564E1,1.031344E1,2.1365112E1,3.2762485E-3,9.370056E-2,-1.2820521E-1,-4.6229067E-1,-1.178656E-1,-3.0527136E-1,-1.2374865E0,6.255633E-2,-3.359887E0,4.850548E0,-4.3541383E-2,-1.7173566E-1,-1.3611707E-1,-5.9194714E-2,1.7444456E-1,-3.5343442E-2,-1.887193E-1,-3.5550478E-1,6.564236E-3,-8.185432E-2,-4.7806542E-2,1.6557439E-1,-1.2366689E-1,-3.3221688E-2,-3.491238E-1,-2.2368461E-1,-6.923238E-2,2.203449E-1,2.8088355E-1,-4.3370155E-1,2.873855E-1,4.7970653E-1,-1.6393553E-1,4.7222602E-1,7.1305406E-1,5.57218E-1,1.6540263E-2,-7.93586E-2,-1.4923836E-1,-4.196892E-2,1.7202748E-1,9.16099E-2],"categories":[],"categories_nodes":[],"categories_segments":[],"categories_sizes":[],"default_left":[0,0,0,0,0,0,0,0,0,0,0,0,0,0,0,0,0,0,0,0,0,0,0,0,0,0,0,0,0,0,0,0,0,0,0,0,0,0,0,0,0,0,0,0,0,0,0,0,0,0,0,0,0,0,0,0,0,0,0,0,0,0,0,0,0,0,0,0,0,0,0,0,0,0,0,0,0,0,0,0,0,0,0,0,0,0,0,0,0,0,0,0,0,0,0,0,0,0,0,0,0,0,0,0,0,0,0,0,0,0,0,0,0,0,0,0,0,0,0,0,0,0,0,0,0,0,0,0,0,0,0,0,0,0,0,0,0,0,0,0,0,0,0,0,0,0,0,0,0,0,0,0,0,0,0,0,0,0,0],"id":5,"left_children":[1,3,5,7,9,11,13,15,17,-1,19,21,23,25,27,29,31,33,35,37,-1,-1,-1,39,41,43,45,47,49,51,53,55,57,59,61,63,65,-1,-1,67,-1,-1,69,-1,71,73,75,77,79,81,83,-1,-1,-1,-1,85,87,89,91,-1,-1,93,-1,-1,95,97,99,-1,101,-1,-1,103,105,107,109,111,-1,113,115,117,119,121,123,125,-1,-1,-1,-1,-1,-1,-1,-1,127,-1,-1,129,131,133,135,137,139,-1,-1,-1,141,-1,-1,-1,-1,143,-1,-1,-1,145,147,149,151,-1,-1,-1,-1,-1,-1,153,-1,155,157,-1,-1,-1,-1,-1,-1,-1,-1,-1,-1,-1,-1,-1,-1,-1,-1,-1,-1,-1,-1,-1,-1,-1,-1,-1,-1,-1,-1,-1,-1,-1,-1],"loss_changes":[4.7568445E4,1.5541146E4,2.6742012E4,8.872738E3,8.406258E3,1.7136709E3,8.744516E3,4.6702773E3,5.522702E3,0E0,1.4777393E2,2.1958008E1,4.0802393E2,4.076046E3,8.755738E3,4.4132892E2,1.5568906E3,3.2382422E2,1.5659053E3,3.1632935E1,0E0,0E0,0E0,8.5637695E1,1.506189E1,2.7208325E2,9.9321594E2,5.651383E3,1.397025E3,2.4198364E1,1.3638733E2,2.8313257E2,5.1783984E2,4.273789E1,3.332837E2,2.362175E2,1.3898076E3,0E0,0E0,8.424194E1,0E0,0E0,1.3873959E0,0E0,1.21772705E2,7.239907E2,2.6038754E2,4.949754E3,9.691687E2,4.110846E2,4.0745264E2,0E0,0E0,0E0,0E0,1.4571973E2,1.0693873E2,1.6069531E2,2.5073145E2,0E0,0E0,1.3307709E1,0E0,0E0,1.5367822E2,7.797666E2,2.3302977E2,0E0,4.2041016E0,0E0,0E0,1.6701172E1,1.4911972E1,3.24097E1,1.231196E3,8.481567E0,0E0,1.8240918E3,1.0879219E3,1.6678215E1,1.3273303E2,5.756555E1,4.167643E1,6.1870953E2,0E0,0E0,0E0,0E0,0E0,0E0,0E0,0E0,1.6022423E1,0E0,0E0,3.328607E1,1.294215E2,8.079863E2,2.6204205E1,1.3031137E2,1.0434982E1,0E0,0E0,0E0,1.3937012E1,0E0,0E0,0E0,0E0,3.5080554E2,0E0,0E0,0E0,1.1228376E3,1.4545137E3,1.1075425E3,6.530078E1,0E0,0E0,0E0,0E0,0E0,0E0,2.0483032E1,0E0,2.1603752E1,5.8345215E1,0E0,0E0,0E0,0E0,0E0,0E0,0E0,0E0,0E0,0E0,0E0,0E0,0E0,0E0,0E0,0E0,0E0,0E0,0E0,0E0,0E0,0E0,0E0,0E0,0E0,0E0,0E0,0E0,0E0,0E0,0E0,0E0],"parents":[2147483647,0,0,1,1,2,2,3,3,4,4,5,5,6,6,7,7,8,8,10,10,11,11,12,12,13,13,14,14,15,15,16,16,17,17,18,18,19,19,23,23,24,24,25,25,26,26,27,27,28,28,29,29,30,30,31,31,32,32,33,33,34,34,35,35,36,36,39,39,42,42,44,44,45,45,46,46,47,47,48,48,49,49,50,50,55,55,56,56,57,57,58,58,61,61,64,64,65,65,66,66,68,68,71,71,72,72,73,73,74,74,75,75,77,77,78,78,79,79,80,80,81,81,82,82,83,83,92,92,95,95,96,96,97,97,98,98,99,99,100,100,104,104,109,109,113,113,114,114,115,115,116,116,123,123,125,125,126,126],"right_children":[2,4,6,8,10,12,14,16,18,-1,20,22,24,26,28,30,32,34,36,38,-1,-1,-1,40,42,44,46,48,50,52,54,56,58,60,62,64,66,-1,-1,68,-1,-1,70,-1,72,74,76,78,80,82,84,-1,-1,-1,-1,86,88,90,92,-1,-1,94,-1,-1,96,98,100,-1,102,-1,-1,104,106,108,110,112,-1,114,116,118,120,122,124,126,-1,-1,-1,-1,-1,-1,-1,-1,128,-1,-1,130,132,134,136,138,140,-1,-1,-1,142,-1,-1,-1,-1,144,-1,-1,-1,146,148,150,152,-1,-1,-1,-1,-1,-1,154,-1,156,158,-1,-1,-1,-1,-1,-1,-1,-1,-1,-1,-1,-1,-1,-1,-1,-1,-1,-1,-1,-1,-1,-1,-1,-1,-1,-1,-1,-1,-1,-1,-1,-1],"split_conditions":[3.6412522E-1,1.4432654E0,-6.8531173E-1,-9.9980795E-1,1.2338842E0,-9.9980795E-1,-9.9980795E-1,-1.0012954E0,-4.1727075E-1,6.6439843E-1,2.1690333E0,-1.4679375E0,1.7072502E0,1.6494722E0,4.9196735E-1,-6.1201617E-2,-9.231592E-1,-9.8602414E-1,9.999924E-1,1.0001816E0,-4.3457873E-2,-3.2401675E-1,-5.521268E-1,1.1783167E0,-5.267019E-1,-1.5521684E0,-1.6144867E0,6.189726E-1,5.069203E-2,-3.023081E-1,-2.1857257E0,1.130037E0,-3.796212E-2,2.132139E-1,3.3399066E-1,-6.8331397E-1,1.0001816E0,-3.5390395E-1,-1.4042853E-1,-1.0313494E-1,-1.5405558E-1,-1.2015391E-1,-8.755902E-1,4.640213E-2,1.3319026E-1,1.0806128E0,-3.4696987E-1,2.3936927E-1,7.5281255E-2,1.7072502E0,8.9249486E-1,-0E0,-1.140565E-1,3.898948E-1,8.021127E-2,-1.6770458E0,3.3992788E-1,-6.8414277E-1,4.5746753E-1,8.7815456E-2,-5.8096256E-2,-3.7799424E-1,4.130669E-1,1.8638383E-1,-3.6319232E-1,1.7072502E0,-3.318382E-1,-1.6920418E-1,-2.1162485E-1,-6.403428E-2,-1.6725449E-2,3.800594E-1,2.2375157E-2,2.7259235E0,-7.494826E-2,-9.124245E-1,1.0889201E-1,-3.051817E-1,-9.8219794E-1,1.4526825E0,4.4202706E-1,1.1735774E-1,1.5145896E-1,2.160381E0,2.606086E-1,-1.3461684E-1,-3.5991472E-1,3.673092E-2,-1.873145E-1,-2.4651475E-1,-5.5363977E-1,-4.13714E-1,6.8782187E-1,1.8559633E-1,7.614186E-2,-4.5393556E-1,-5.261723E-1,-3.318382E-1,-5.11847E-1,-6.8365663E-1,1.6706876E0,-2.0901941E-1,-3.4172454E-1,-1.6573307E-1,7.5095224E-1,-5.1169448E-2,-1.5871969E-1,-0E0,-1.2545232E-1,-2.3231578E0,6.8659395E-1,-2.2111674E-1,-1.0123153E-1,-7.598717E-1,-7.494826E-2,1.3319026E-1,1.0087311E0,3.2762485E-3,9.370056E-2,-1.2820521E-1,-4.6229067E-1,-1.178656E-1,-3.0527136E-1,-1.3994914E-1,6.255633E-2,1.3786542E0,-1.1494912E-1,-4.3541383E-2,-1.7173566E-1,-1.3611707E-1,-5.9194714E-2,1.7444456E-1,-3.5343442E-2,-1.887193E-1,-3.5550478E-1,6.564236E-3,-8.185432E-2,-4.7806542E-2,1.6557439E-1,-1.2366689E-1,-3.3221688E-2,-3.491238E-1,-2.2368461E-1,-6.923238E-2,2.203449E-1,2.8088355E-1,-4.3370155E-1,2.873855E-1,4.7970653E-1,-1.6393553E-1,4.7222602E-1,7.1305406E-1,5.57218E-1,1.6540263E-2,-7.93586E-2,-1.4923836E-1,-4.196892E-2,1.7202748E-1,9.16099E-2],"split_indices":[21,10,7,25,1,25,25,25,2,0,6,2,24,6,28,10,2,25,25,25,0,0,0,2,15,3,2,2,6,10,2,7,11,1,1,27,25,0,0,11,0,0,7,0,22,21,2,2,20,24,18,0,0,0,0,3,1,3,18,0,0,1,0,0,15,24,24,0,5,0,0,17,20,17,11,3,0,6,28,2,20,2,7,24,0,0,0,0,0,0,0,0,22,0,0,15,6,24,3,6,28,0,0,0,7,0,0,0,0,2,0,0,0,2,11,22,27,0,0,0,0,0,0,2,0,28,15,0,0,0,0,0,0,0,0,0,0,0,0,0,0,0,0,0,0,0,0,0,0,0,0,0,0,0,0,0,0,0,0],"split_type":[0,0,0,0,0,0,0,0,0,0,0,0,0,0,0,0,0,0,0,0,0,0,0,0,0,0,0,0,0,0,0,0,0,0,0,0,0,0,0,0,0,0,0,0,0,0,0,0,0,0,0,0,0,0,0,0,0,0,0,0,0,0,0,0,0,0,0,0,0,0,0,0,0,0,0,0,0,0,0,0,0,0,0,0,0,0,0,0,0,0,0,0,0,0,0,0,0,0,0,0,0,0,0,0,0,0,0,0,0,0,0,0,0,0,0,0,0,0,0,0,0,0,0,0,0,0,0,0,0,0,0,0,0,0,0,0,0,0,0,0,0,0,0,0,0,0,0,0,0,0,0,0,0,0,0,0,0,0,0],"sum_hessian":[1.149E3,5.09E2,6.4E2,4.68E2,4.1E1,9.9E1,5.41E2,2.04E2,2.64E2,2.7E1,1.4E1,2.6E1,7.3E1,1.15E2,4.26E2,1.3E1,1.91E2,3.1E1,2.33E2,1.1E1,3E0,6E0,2E1,4.9E1,2.4E1,4.2E1,7.3E1,3.02E2,1.24E2,6E0,7E0,4.3E1,1.48E2,6E0,2.5E1,4.6E1,1.87E2,8E0,3E0,3.9E1,1E1,1.6E1,8E0,3E0,3.9E1,6E1,1.3E1,2.81E2,2.1E1,2.5E1,9.9E1,3E0,3E0,4E0,3E0,3.6E1,7E0,1.33E2,1.5E1,3E0,3E0,1.5E1,1E1,3E0,4.3E1,1.63E2,2.4E1,9E0,3E1,5E0,3E0,3E1,9E0,7E0,5.3E1,9E0,4E0,1.78E2,1.03E2,1.4E1,7E0,1.1E1,1.4E1,7.2E1,2.7E1,5E0,3.1E1,3E0,4E0,4E0,1.29E2,9E0,6E0,1.1E1,4E0,3E1,1.3E1,1.49E2,1.4E1,1E1,1.4E1,7E0,2.3E1,6E0,2.4E1,4E0,5E0,3E0,4E0,4.8E1,5E0,4E0,5E0,7E0,1.71E2,1.3E1,9E1,3E0,1.1E1,3E0,4E0,5E0,6E0,7E0,7E0,1E1,6.2E1,3E0,3E0,1.7E1,1.3E1,3E0,1E1,4.5E1,1.04E2,4E0,1E1,4E0,6E0,1.1E1,3E0,1.2E1,1.2E1,4E0,4.4E1,3E0,4E0,9.8E1,7.3E1,3E0,1E1,6.1E1,2.9E1,3E0,4E0,5E0,5E0,4.5E1,1.7E1],"tree_param":{"num_deleted":"0","num_feature":"32","num_nodes":"159","size_leaf_vector":"1"}},{"base_weights":[8.5649155E-2,-6.094518E0,7.9381194E0,-9.366532E0,5.8497167E0,-4.6291482E-1,1.1580015E1,-1.3153359E1,-3.337708E0,8.470483E0,1.8580184E0,-5.8293924E0,6.323635E0,1.4612524E1,2.7547102E0,3.2695396E0,-1.4185274E1,-5.122311E0,4.6779203E0,6.714436E0,6.988063E-1,-2.8448045E0,5.2412205E0,-1.1145633E1,-3.944832E0,1.0417682E1,9.618684E-2,-1.3331044E0,1.6088404E1,-6.1614704E0,6.8214025E0,-4.799414E0,4.0348515E-1,-1.6292875E1,-1.2448049E1,1.640692E-1,-5.4223266E0,5.710073E0,-4.2024106E-2,-5.7462603E-2,7.628819E0,-5.8468213E0,3.8266923E0,-6.1120227E-2,6.041438E0,-2.3097744E0,-4.4816235E-1,1.9012548E-1,-4.528459E0,6.267603E0,1.654712E1,-2.3158704E-1,2.9527957E0,-5.9107604E0,6.3985615E0,1.7446905E1,-1.5286282E0,-3.8865966E-1,-9.165421E0,5.242931E-1,5.8804975E0,-2.1076076E0,-2.8140312E-1,-1.3050605E1,-1.7575659E1,-5.349447E-1,-1.1281369E1,-6.8442583E0,-2.7575498E0,7.1162972E0,4.5312427E-2,8.732315E0,1.4849642E-1,-3.4802786E-1,-3.9449494E0,5.621451E-4,1.889479E-1,2.760963E-1,3.703344E0,-2.1210903E-2,-1.0199738E-1,-3.3296344E0,-9.260836E0,7.744047E0,1.1050944E0,2.6215342E-1,1.9547077E1,-1.3305804E-1,4.4069223E0,-4.594317E-2,-7.3652096E0,-4.3286394E-2,3.3390883E-1,1.4808618E1,2.0204527E1,-1.5325613E-1,7.312986E-2,1.9588882E-1,-3.7002761E0,-1.0895744E1,-6.566223E-2,2.563564E0,6.849883E0,-9.284699E-2,-2.8714634E-2,-4.9093837E-1,-3.5177094E-1,-5.6397617E-1,-2.7027994E-1,-9.514281E0,-1.3479725E1,-7.8520155E0,-5.784495E0,-1.1803158E-1,-2.128541E0,1.6605666E-1,2.8038278E-1,7.304982E0,3.665504E-1,-7.5888126E-3,-1.5313223E-1,-2.0536108E-2,4.659777E0,1.2713891E-1,-5.2418413E0,-1.1604224E1,-1.1448364E-1,1.7124967E-1,3.287729E-1,-2.2900457E-2,8.8784516E-2,3.2298777E-1,7.346525E-1,1.9744052E-1,2.6117442E0,-2.9266304E-1,-1.3018107E-1,1.0903853E1,1.8227167E1,1.418196E-1,2.0773865E1,-5.874635E-1,5.892118E-2,-1.4120997E-1,-5.2509595E-2,-1.3557881E-1,-3.8119102E-1,4.096168E0,-7.9951935E-2,9.7656086E-2,7.821282E0,-3.4061196E-1,-1.6807483E-1,-5.2973527E-1,-3.595676E-1,-1.4599048E-1,-2.5899965E-1,-1.8832707E-1,-7.246056E-2,-5.0752454E-2,-8.58257E-2,1.6339116E-1,2.5189915E-1,9.420205E-2,1.786265E-1,-5.2474637E-2,2.3767363E-1,-4.446648E-2,-1.9423994E-1,-4.2931792E-1,-1.9167843E-1,3.2622445E-2,9.4396986E-2,2.0094097E-2,3.5868496E-1,7.002307E-1,4.6898785E-1,6.7942756E-1,5.234099E-1,-0E0,-3.7080303E-2,7.3415756E-2,1.5572494E-1,2.6016983E-1,1.4641593E-1],"categories":[],"categories_nodes":[],"categories_segments":[],"categories_sizes":[],"default_left":[0,0,0,0,0,0,0,0,0,0,0,0,0,0,0,0,0,0,0,0,0,0,0,0,0,0,0,0,0,0,0,0,0,0,0,0,0,0,0,0,0,0,0,0,0,0,0,0,0,0,0,0,0,0,0,0,0,0,0,0,0,0,0,0,0,0,0,0,0,0,0,0,0,0,0,0,0,0,0,0,0,0,0,0,0,0,0,0,0,0,0,0,0,0,0,0,0,0,0,0,0,0,0,0,0,0,0,0,0,0,0,0,0,0,0,0,0,0,0,0,0,0,0,0,0,0,0,0,0,0,0,0,0,0,0,0,0,0,0,0,0,0,0,0,0,0,0,0,0,0,0,0,0,0,0,0,0,0,0,0,0,0,0,0,0,0,0,0,0,0,0,0,0,0,0,0,0,0,0,0,0,0,0,0,0],"id":6,"left_children":[1,3,5,7,9,11,13,15,17,19,21,23,25,27,29,31,33,35,37,39,-1,41,43,45,47,49,51,53,55,57,59,61,-1,63,65,-1,67,69,-1,-1,71,73,75,-1,77,79,-1,-1,81,83,85,-1,87,89,91,93,95,97,99,-1,101,103,-1,105,107,-1,109,111,113,115,-1,117,-1,-1,119,-1,-1,-1,121,-1,-1,123,125,127,129,-1,131,-1,133,-1,135,-1,-1,137,139,-1,141,-1,143,145,-1,147,149,-1,-1,-1,-1,-1,-1,151,153,155,157,-1,159,-1,-1,161,-1,-1,-1,-1,163,165,167,169,-1,-1,-1,-1,-1,-1,-1,-1,171,-1,-1,173,175,-1,177,179,-1,-1,-1,-1,-1,181,-1,-1,183,-1,-1,-1,-1,-1,-1,-1,-1,-1,-1,-1,-1,-1,-1,-1,-1,-1,-1,-1,-1,-1,-1,-1,-1,-1,-1,-1,-1,-1,-1,-1,-1,-1,-1],"loss_changes":[5.5412547E4,2.502119E4,1.53981E4,1.1409156E4,1.4223784E3,5.6018877E3,9.344605E3,5.2664688E3,2.810025E3,1.8627622E3,9.04393E2,8.1202686E2,1.7242236E3,6.16816E3,3.3346187E3,1.5273646E3,8.609922E2,5.2290283E2,2.325877E2,6.016262E2,0E0,5.00219E2,2.0246881E2,5.729165E2,4.0339673E2,9.332827E2,6.143271E2,8.446522E2,5.751129E3,4.9244153E2,4.8477075E2,9.924962E1,0E0,3.0636328E2,6.895586E2,0E0,5.6803906E2,1.7094464E2,0E0,0E0,1.7096509E2,1.20813354E2,6.280509E1,0E0,1.5712598E2,6.37817E0,0E0,0E0,3.1592078E2,1.8452948E2,2.2563623E2,0E0,2.3596791E2,8.138562E1,3.1420792E2,1.3230391E3,9.965538E1,2.593983E2,2.0294946E2,0E0,1.6799622E2,3.335884E0,0E0,1.5312988E1,1.8799023E2,0E0,3.867168E2,5.8660156E1,2.4850616E1,2.4985352E1,0E0,1.14687256E2,0E0,0E0,4.456888E1,0E0,0E0,0E0,7.976065E1,0E0,0E0,3.4008447E2,1.0904114E2,6.3442993E1,2.504489E1,0E0,1.550415E2,0E0,4.087088E1,0E0,2.620105E1,0E0,0E0,1.3635234E3,8.4521094E2,0E0,1.7174221E1,0E0,2.4732895E0,6.754663E1,0E0,1.2725543E2,1.3429126E2,0E0,0E0,0E0,0E0,0E0,0E0,3.7205176E2,1.9817383E2,2.277832E1,2.4590942E1,0E0,4.899353E0,0E0,0E0,8.059814E0,0E0,0E0,0E0,0E0,5.0720215E0,2.6929544E2,1.0836572E2,3.6569824E0,0E0,0E0,0E0,0E0,0E0,0E0,0E0,0E0,1.6755295E0,0E0,0E0,3.0715967E2,4.9333203E2,0E0,3.0425781E1,3.4586105E0,0E0,0E0,0E0,0E0,0E0,3.4424133E0,0E0,0E0,1.0639893E1,0E0,0E0,0E0,0E0,0E0,0E0,0E0,0E0,0E0,0E0,0E0,0E0,0E0,0E0,0E0,0E0,0E0,0E0,0E0,0E0,0E0,0E0,0E0,0E0,0E0,0E0,0E0,0E0,0E0,0E0,0E0,0E0,0E0,0E0],"parents":[2147483647,0,0,1,1,2,2,3,3,4,4,5,5,6,6,7,7,8,8,9,9,10,10,11,11,12,12,13,13,14,14,15,15,16,16,17,17,18,18,19,19,21,21,22,22,23,23,24,24,25,25,26,26,27,27,28,28,29,29,30,30,31,31,33,33,34,34,36,36,37,37,40,40,41,41,42,42,44,44,45,45,48,48,49,49,50,50,52,52,53,53,54,54,55,55,56,56,57,57,58,58,60,60,61,61,63,63,64,64,66,66,67,67,68,68,69,69,71,71,74,74,78,78,81,81,82,82,83,83,84,84,86,86,88,88,90,90,93,93,94,94,96,96,98,98,99,99,101,101,102,102,109,109,110,110,111,111,112,112,114,114,117,117,122,122,123,123,124,124,125,125,134,134,137,137,138,138,140,140,141,141,147,147,150,150],"right_children":[2,4,6,8,10,12,14,16,18,20,22,24,26,28,30,32,34,36,38,40,-1,42,44,46,48,50,52,54,56,58,60,62,-1,64,66,-1,68,70,-1,-1,72,74,76,-1,78,80,-1,-1,82,84,86,-1,88,90,92,94,96,98,100,-1,102,104,-1,106,108,-1,110,112,114,116,-1,118,-1,-1,120,-1,-1,-1,122,-1,-1,124,126,128,130,-1,132,-1,134,-1,136,-1,-1,138,140,-1,142,-1,144,146,-1,148,150,-1,-1,-1,-1,-1,-1,152,154,156,158,-1,160,-1,-1,162,-1,-1,-1,-1,164,166,168,170,-1,-1,-1,-1,-1,-1,-1,-1,172,-1,-1,174,176,-1,178,180,-1,-1,-1,-1,-1,182,-1,-1,184,-1,-1,-1,-1,-1,-1,-1,-1,-1,-1,-1,-1,-1,-1,-1,-1,-1,-1,-1,-1,-1,-1,-1,-1,-1,-1,-1,-1,-1,-1,-1,-1,-1,-1],"split_conditions":[-8.549035E-2,1.3739619E0,-9.9220705E-1,6.957127E-1,-1.733127E0,7.390322E-1,3.3353546E-1,-2.0188155E0,1.4816394E0,-1.8874387E0,-9.9980795E-1,2.668147E-1,1.8193954E-1,-9.846394E-1,5.819297E-1,-2.3539462E0,-4.588374E-1,-2.0188155E0,-1.0816345E-1,-2.1673136E0,6.988063E-1,3.7800783E-1,3.8762155E-1,-2.1028687E-1,2.7256998E-1,3.341818E-1,-4.2266634E-1,2.1690333E0,5.6919074E-1,-7.3008366E-2,-1.194877E0,-8.0826306E-1,4.0348515E-1,-1.520847E-1,-1.0412692E0,1.640692E-1,1.0552233E0,1.322163E-1,-4.2024106E-2,-5.7462603E-2,1.333566E0,6.830827E-1,5.005006E-1,-6.1120227E-2,1.7072502E0,-1.0022438E0,-4.4816235E-1,1.9012548E-1,2.7085714E0,-4.0382605E-2,-2.2041997E-1,-2.3158704E-1,9.645931E-1,-3.2928067E-1,-4.775273E-1,-1.0527281E-1,-4.5535827E-1,-1.9750041E-1,2.8277001E0,5.242931E-1,2.9479E-1,-2.4443452E0,-2.8140312E-1,-8.556401E-1,1.198946E0,-5.349447E-1,-5.849665E-1,3.6230393E-2,-1.0339995E-1,1.8697543E0,4.5312427E-2,-6.786821E-1,1.4849642E-1,-3.4802786E-1,1.7577233E0,5.621451E-4,1.889479E-1,2.760963E-1,3.561697E-1,-2.1210903E-2,-1.0199738E-1,-6.070275E-1,-1.4078374E-1,-2.3099029E-1,2.4126676E-1,2.6215342E-1,-2.2625608E0,-1.3305804E-1,1.00836925E-1,-4.594317E-2,2.2678321E-2,-4.3286394E-2,3.3390883E-1,9.537987E-1,-5.5341834E-1,-1.5325613E-1,1.4167185E0,1.9588882E-1,-4.767364E-2,-4.743005E-1,-6.566223E-2,3.2958402E-3,4.1981208E-1,-9.284699E-2,-2.8714634E-2,-4.9093837E-1,-3.5177094E-1,-5.6397617E-1,-2.7027994E-1,-9.9980795E-1,2.376642E-1,-1.0252076E-1,-9.605207E-2,-1.1803158E-1,5.175711E-1,1.6605666E-1,2.8038278E-1,-4.0382605E-2,3.665504E-1,-7.5888126E-3,-1.5313223E-1,-2.0536108E-2,5.521551E-2,7.300668E-1,-1.2297566E-1,2.9930824E-1,-1.1448364E-1,1.7124967E-1,3.287729E-1,-2.2900457E-2,8.8784516E-2,3.2298777E-1,7.346525E-1,1.9744052E-1,1.7078778E0,-2.9266304E-1,-1.3018107E-1,-4.9347207E-1,-2.8007177E-1,1.418196E-1,-1.5067099E-1,1.7502154E-1,5.892118E-2,-1.4120997E-1,-5.2509595E-2,-1.3557881E-1,-3.8119102E-1,-4.1057175E-1,-7.9951935E-2,9.7656086E-2,4.777654E-1,-3.4061196E-1,-1.6807483E-1,-5.2973527E-1,-3.595676E-1,-1.4599048E-1,-2.5899965E-1,-1.8832707E-1,-7.246056E-2,-5.0752454E-2,-8.58257E-2,1.6339116E-1,2.5189915E-1,9.420205E-2,1.786265E-1,-5.2474637E-2,2.3767363E-1,-4.446648E-2,-1.9423994E-1,-4.2931792E-1,-1.9167843E-1,3.2622445E-2,9.4396986E-2,2.0094097E-2,3.5868496E-1,7.002307E-1,4.6898785E-1,6.7942756E-1,5.234099E-1,-0E0,-3.7080303E-2,7.3415756E-2,1.5572494E-1,2.6016983E-1,1.4641593E-1],"split_indices":[12,7,28,14,0,21,28,0,14,0,25,0,4,25,21,0,21,0,10,2,0,1,18,10,0,18,19,6,0,11,20,28,0,0,8,0,14,13,0,0,19,8,4,0,24,14,0,0,4,20,13,0,4,1,13,24,15,2,1,0,19,0,0,8,0,0,14,2,11,14,0,4,0,0,7,0,0,0,20,0,0,20,30,1,1,0,0,0,0,0,10,0,0,6,0,0,0,0,0,15,0,13,18,0,0,0,0,0,0,25,14,11,15,0,20,0,0,20,0,0,0,0,0,1,1,21,0,0,0,0,0,0,0,0,7,0,0,7,14,0,6,1,0,0,0,0,0,13,0,0,2,0,0,0,0,0,0,0,0,0,0,0,0,0,0,0,0,0,0,0,0,0,0,0,0,0,0,0,0,0,0,0,0,0,0],"split_type":[0,0,0,0,0,0,0,0,0,0,0,0,0,0,0,0,0,0,0,0,0,0,0,0,0,0,0,0,0,0,0,0,0,0,0,0,0,0,0,0,0,0,0,0,0,0,0,0,0,0,0,0,0,0,0,0,0,0,0,0,0,0,0,0,0,0,0,0,0,0,0,0,0,0,0,0,0,0,0,0,0,0,0,0,0,0,0,0,0,0,0,0,0,0,0,0,0,0,0,0,0,0,0,0,0,0,0,0,0,0,0,0,0,0,0,0,0,0,0,0,0,0,0,0,0,0,0,0,0,0,0,0,0,0,0,0,0,0,0,0,0,0,0,0,0,0,0,0,0,0,0,0,0,0,0,0,0,0,0,0,0,0,0,0,0,0,0,0,0,0,0,0,0,0,0,0,0,0,0,0,0,0,0,0,0],"sum_hessian":[1.14E3,6.38E2,5.02E2,5.01E2,1.37E2,1.52E2,3.5E2,3.07E2,1.94E2,8.2E1,5.5E1,8.5E1,6.7E1,2.6E2,9E1,1.8E1,2.89E2,1.59E2,3.5E1,7.4E1,8E0,2.3E1,3.2E1,2.1E1,6.4E1,4E1,2.7E1,2.2E1,2.38E2,2.8E1,6.2E1,1E1,8E0,1.27E2,1.62E2,4E0,1.55E2,3E1,5E0,7E0,6.7E1,1.6E1,7E0,3E0,2.9E1,6E0,1.5E1,3E0,6.1E1,2.5E1,1.5E1,7E0,2E1,1.4E1,8E0,2.21E2,1.7E1,1E1,1.8E1,4E0,5.8E1,7E0,3E0,3.9E1,8.8E1,3E1,1.32E2,1E2,5.5E1,2.2E1,8E0,4.7E1,2E1,3E0,1.3E1,3E0,4E0,1.2E1,1.7E1,3E0,3E0,5E1,1.1E1,1.9E1,6E0,5E0,1E1,3E0,1.7E1,4E0,1E1,3E0,5E0,1.16E2,1.05E2,5E0,1.2E1,3E0,7E0,1.4E1,4E0,1.4E1,4.4E1,3E0,4E0,1.3E1,2.6E1,8.3E1,5E0,7.6E1,5.6E1,4.8E1,5.2E1,1.9E1,3.6E1,1.3E1,9E0,3.4E1,1.3E1,3E0,1E1,3E0,1.4E1,1.8E1,3.2E1,7E0,4E0,1.2E1,7E0,3E0,3E0,4E0,6E0,7E0,1E1,5E0,5E0,5.6E1,6E1,4E0,1.01E2,9E0,3E0,4E0,3E0,3E0,1.1E1,1.1E1,3E0,1E1,3.4E1,5.6E1,2E1,1.8E1,3.8E1,7E0,4.1E1,4.8E1,4E0,2.2E1,1.4E1,1.1E1,2.3E1,7E0,7E0,1.5E1,3E0,7E0,2.5E1,4E0,3E0,3E0,7E0,3E0,5.3E1,2.4E1,3.6E1,7.9E1,2.2E1,5E0,4E0,5E0,6E0,2.8E1,6E0],"tree_param":{"num_deleted":"0","num_feature":"32","num_nodes":"185","size_leaf_vector":"1"}},{"base_weights":[-1.21044174E-1,-5.97986E0,7.576836E0,-9.387212E0,6.007845E0,7.497252E-2,1.144056E1,-1.2572247E1,-3.5927136E0,8.365944E0,2.6763039E0,4.373666E0,-6.997414E0,1.2805179E1,-4.077888E-1,1.7037505E0,-1.3649046E1,-5.0290008E0,4.196702E0,6.4959273E0,6.8496704E-1,-2.4757506E-1,3.7421422E0,-3.3860953E0,1.12559395E1,-4.4709507E-1,-5.7366548E0,1.9183338E1,1.0558438E1,2.7416432E0,-6.014325E0,-5.2605457E0,9.172573E0,-5.3137535E-1,-1.1844252E1,1.8520254E-1,-5.284214E0,5.3668556E0,-1.3742682E-1,-1.319239E0,7.3156843E0,-1.2602329E-1,4.571729E0,-8.252998E0,-9.243481E-1,5.4721484E0,6.137925E-1,-8.654701E0,-3.9270945E0,-6.402582E-2,2.0090261E1,5.1874337E0,1.2574311E1,4.240537E-3,9.704789E-2,-2.2932537E-1,-7.546323E-2,-2.2401373E0,-3.023205E-1,3.9726856E-1,-2.5503218E-2,-1.3877645E1,-9.678623E0,-6.5958343E0,-2.8475783E0,3.9989681E0,2.6686564E-1,1.0521199E-2,-7.869253E-2,4.233089E-1,6.8388195E0,9.379058E-1,5.6285152E0,-1.1852632E0,-1.1989476E1,3.39421E-1,-3.2386978E0,1.0837626E1,-7.86582E-1,-9.787697E0,-4.083297E-2,-2.1253355E0,-5.509817E0,1.0820146E1,6.701494E-1,4.5420837E-1,3.5503693E0,-4.069031E0,1.3364164E1,-9.564305E-2,-2.7981305E-2,-1.0361409E1,-1.5728544E1,-7.803076E0,-1.2136694E1,-7.531402E0,-5.6240535E0,-3.370965E0,-2.016706E0,4.562126E0,4.119977E-2,8.267945E0,1.8250702E-1,-1.275454E-1,9.0405926E-2,7.121639E0,3.4011345E0,-5.025758E-3,-5.5914707E-2,-4.2562714E-1,-1.8221179E-1,-1.810932E0,-1.9904114E-1,1.9841357E-1,3.7586012E-1,1.5305144E-1,-1.6604012E-1,-1.3659425E-1,-3.3119565E-1,-7.470531E-1,-1.816927E-1,-2.3428978E-1,-2.9756815E0,1.2568217E-2,1.4653941E1,-2.75179E0,4.556475E0,-2.780813E-1,8.664873E-2,1.47584915E1,6.6185536E0,-1.4654952E-1,-3.354554E-1,-5.113023E-1,-2.2393736E-1,-2.872127E-1,-1.1892744E-1,-4.7984302E-1,-3.3903962E-1,-2.4214928E-1,-1.05795756E-1,-1.1079354E-1,-1.836713E-1,-1.2565303E-1,-6.576372E-2,-7.2010584E-2,-0E0,1.5442777E-1,6.687164E-2,2.832821E-1,1.5564582E-1,4.7954902E-2,2.5680465E-1,-3.9219487E-2,1.6714661E-1,-5.019655E-3,-1.4536539E-1,1.9134998E-2,-4.226404E-2,-1.8211274E-1,-2.8025085E-2,2.775519E-1,5.7563174E-1,-3.9080463E-2,-1.0403211E-1,6.951194E-2,1.779535E-1,2.4823965E-1,5.2089775E-1,2.0246241E-2,2.370347E-1],"categories":[],"categories_nodes":[],"categories_segments":[],"categories_sizes":[],"default_left":[0,0,0,0,0,0,0,0,0,0,0,0,0,0,0,0,0,0,0,0,0,0,0,0,0,0,0,0,0,0,0,0,0,0,0,0,0,0,0,0,0,0,0,0,0,0,0,0,0,0,0,0,0,0,0,0,0,0,0,0,0,0,0,0,0,0,0,0,0,0,0,0,0,0,0,0,0,0,0,0,0,0,0,0,0,0,0,0,0,0,0,0,0,0,0,0,0,0,0,0,0,0,0,0,0,0,0,0,0,0,0,0,0,0,0,0,0,0,0,0,0,0,0,0,0,0,0,0,0,0,0,0,0,0,0,0,0,0,0,0,0,0,0,0,0,0,0,0,0,0,0,0,0,0,0,0,0,0,0,0,0,0,0,0,0,0,0,0,0,0,0],"id":7,"left_children":[1,3,5,7,9,11,13,15,17,19,21,23,25,27,29,31,33,35,37,39,-1,-1,41,43,45,-1,47,49,51,53,55,57,59,-1,61,-1,63,65,-1,67,69,-1,71,73,75,77,-1,79,81,-1,83,85,87,-1,-1,-1,-1,89,-1,-1,-1,91,93,95,97,99,-1,-1,-1,-1,101,103,105,107,109,-1,111,113,115,117,-1,119,121,123,-1,-1,125,127,129,-1,-1,131,133,135,137,139,141,143,145,147,-1,149,-1,-1,-1,151,153,-1,-1,-1,-1,155,-1,-1,-1,-1,-1,-1,-1,157,-1,-1,159,-1,161,163,165,-1,-1,167,169,-1,-1,-1,-1,-1,-1,-1,-1,-1,-1,-1,-1,-1,-1,-1,-1,-1,-1,-1,-1,-1,-1,-1,-1,-1,-1,-1,-1,-1,-1,-1,-1,-1,-1,-1,-1,-1,-1,-1,-1],"loss_changes":[5.217196E4,2.6885219E4,1.44823125E4,9.397207E3,1.1195151E3,5.2220493E3,5.346051E3,5.0994805E3,2.0659146E3,1.9991753E3,7.225481E2,5.7483823E3,5.0977515E2,4.039543E3,6.3318567E2,1.289427E3,1.6393242E3,4.605398E2,3.122736E2,4.9853857E2,0E0,0E0,3.836084E2,5.976261E2,2.6342656E3,0E0,2.6234607E2,1.5090781E3,2.3223457E3,1.9054047E1,3.9194305E1,1.4469852E2,4.33969E2,0E0,7.537012E2,0E0,4.6294873E2,7.360315E1,0E0,1.7655462E1,1.08150635E2,0E0,1.9070435E2,4.2587207E2,9.7755927E2,1.1857635E3,0E0,1.5606616E2,9.017236E1,0E0,6.559082E2,8.869369E2,2.1567617E3,0E0,0E0,0E0,0E0,4.980297E0,0E0,0E0,0E0,5.0039062E2,3.677793E2,4.2962402E1,1.4568817E1,2.1207397E1,0E0,0E0,0E0,0E0,4.3356445E1,1.3597607E2,1.04627075E2,2.8493109E0,2.4818237E1,0E0,1.1788925E2,1.9502441E1,4.5680322E2,2.604004E1,0E0,8.8039925E1,6.817255E1,4.2147168E2,0E0,0E0,3.542044E2,2.8578647E2,1.3372109E3,0E0,0E0,2.1027588E1,2.135459E2,2.8914673E2,9.456055E0,8.961914E0,1.791626E0,1.4802307E1,1.3306763E1,5.7406616E-1,0E0,1.4968262E1,0E0,0E0,0E0,1.2104065E2,1.6976367E2,0E0,0E0,0E0,0E0,9.887362E1,0E0,0E0,0E0,0E0,0E0,0E0,0E0,1.3374912E1,0E0,0E0,4.988707E1,0E0,7.180908E0,3.5085297E-1,1.0736182E2,0E0,0E0,1.4786699E3,1.4913635E2,0E0,0E0,0E0,0E0,0E0,0E0,0E0,0E0,0E0,0E0,0E0,0E0,0E0,0E0,0E0,0E0,0E0,0E0,0E0,0E0,0E0,0E0,0E0,0E0,0E0,0E0,0E0,0E0,0E0,0E0,0E0,0E0,0E0,0E0,0E0,0E0,0E0,0E0,0E0,0E0],"parents":[2147483647,0,0,1,1,2,2,3,3,4,4,5,5,6,6,7,7,8,8,9,9,10,10,11,11,12,12,13,13,14,14,15,15,16,16,17,17,18,18,19,19,22,22,23,23,24,24,26,26,27,27,28,28,29,29,30,30,31,31,32,32,34,34,36,36,37,37,39,39,40,40,42,42,43,43,44,44,45,45,47,47,48,48,50,50,51,51,52,52,57,57,61,61,62,62,63,63,64,64,65,65,70,70,71,71,72,72,73,73,74,74,76,76,77,77,78,78,79,79,81,81,82,82,83,83,86,86,87,87,88,88,91,91,92,92,93,93,94,94,95,95,96,96,97,97,98,98,99,99,101,101,105,105,106,106,111,111,119,119,122,122,124,124,125,125,126,126,129,129,130,130],"right_children":[2,4,6,8,10,12,14,16,18,20,22,24,26,28,30,32,34,36,38,40,-1,-1,42,44,46,-1,48,50,52,54,56,58,60,-1,62,-1,64,66,-1,68,70,-1,72,74,76,78,-1,80,82,-1,84,86,88,-1,-1,-1,-1,90,-1,-1,-1,92,94,96,98,100,-1,-1,-1,-1,102,104,106,108,110,-1,112,114,116,118,-1,120,122,124,-1,-1,126,128,130,-1,-1,132,134,136,138,140,142,144,146,148,-1,150,-1,-1,-1,152,154,-1,-1,-1,-1,156,-1,-1,-1,-1,-1,-1,-1,158,-1,-1,160,-1,162,164,166,-1,-1,168,170,-1,-1,-1,-1,-1,-1,-1,-1,-1,-1,-1,-1,-1,-1,-1,-1,-1,-1,-1,-1,-1,-1,-1,-1,-1,-1,-1,-1,-1,-1,-1,-1,-1,-1,-1,-1,-1,-1,-1,-1],"split_conditions":[-8.549035E-2,1.2232059E-1,3.6412522E-1,6.957127E-1,-1.733127E0,1.9975682E-1,5.6919074E-1,-2.0188155E0,1.4816394E0,-1.8874387E0,4.6613094E-1,-5.849665E-1,-2.4170313E0,-3.1160453E-1,6.5373E-2,-1.5208492E-1,-1.0096606E0,-2.0188155E0,2.2644851E0,-2.4443452E0,6.8496704E-1,-2.4757506E-1,-6.9031256E-1,2.668147E-1,3.111659E-1,-4.4709507E-1,2.3122862E-1,-7.22404E-1,-2.2664393E-1,1.7242156E0,7.390322E-1,-8.1644917E-1,-4.866835E-1,-5.3137535E-1,-6.583035E-2,1.8520254E-1,1.0552233E0,1.8697543E0,-1.3742682E-1,-1.7377563E-1,-2.3165987E0,-1.2602329E-1,-3.858095E-1,-7.028786E-1,3.7063938E-1,-3.318382E-1,6.137925E-1,1.6019629E0,2.4243188E-1,-6.402582E-2,-3.318382E-1,-1.9078343E0,9.913595E-2,4.240537E-3,9.704789E-2,-2.2932537E-1,-7.546323E-2,-2.4443452E0,-3.023205E-1,3.9726856E-1,-2.5503218E-2,-1.6523361E-1,-5.337959E-1,3.6230393E-2,-2.9409679E-2,-4.5861304E-2,2.6686564E-1,1.0521199E-2,-7.869253E-2,4.233089E-1,2.7160916E0,1.9213184E0,1.21857345E-1,-2.0924277E0,-4.0528E-1,3.39421E-1,2.0260057E0,-2.5583702E-1,8.301151E-3,-1.2189441E0,-4.083297E-2,1.0050219E0,2.0802517E-1,-6.4247936E-2,6.701494E-1,4.5420837E-1,-5.45468E-1,-1.9949475E-1,8.0098873E-1,-9.564305E-2,-2.7981305E-2,-9.8608357E-1,1.1621912E0,2E0,2.376642E-1,-1.0566556E-1,1.033322E0,4.2142394E-1,-1.6514224E-1,-1.0816345E-1,4.119977E-2,-4.1196018E-1,1.8250702E-1,-1.275454E-1,9.0405926E-2,-2.7236706E-1,2.160381E0,-5.025758E-3,-5.5914707E-2,-4.2562714E-1,-1.8221179E-1,7.5281255E-2,-1.9904114E-1,1.9841357E-1,3.7586012E-1,1.5305144E-1,-1.6604012E-1,-1.3659425E-1,-3.3119565E-1,3.5676554E-1,-1.816927E-1,-2.3428978E-1,5.4266036E-1,1.2568217E-2,2.3122862E-1,9.439992E-1,9.649658E-1,-2.780813E-1,8.664873E-2,9.337965E-1,3.6592662E-1,-1.4654952E-1,-3.354554E-1,-5.113023E-1,-2.2393736E-1,-2.872127E-1,-1.1892744E-1,-4.7984302E-1,-3.3903962E-1,-2.4214928E-1,-1.05795756E-1,-1.1079354E-1,-1.836713E-1,-1.2565303E-1,-6.576372E-2,-7.2010584E-2,-0E0,1.5442777E-1,6.687164E-2,2.832821E-1,1.5564582E-1,4.7954902E-2,2.5680465E-1,-3.9219487E-2,1.6714661E-1,-5.019655E-3,-1.4536539E-1,1.9134998E-2,-4.226404E-2,-1.8211274E-1,-2.8025085E-2,2.775519E-1,5.7563174E-1,-3.9080463E-2,-1.0403211E-1,6.951194E-2,1.779535E-1,2.4823965E-1,5.2089775E-1,2.0246241E-2,2.370347E-1],"split_indices":[12,23,21,14,0,13,0,0,14,0,21,14,20,17,10,10,5,0,14,0,0,0,3,0,2,0,0,17,13,0,21,14,5,0,21,0,14,14,0,5,0,0,13,13,0,24,0,16,9,0,24,2,27,0,0,0,0,0,0,0,0,0,14,2,27,13,0,0,0,0,16,17,0,0,21,0,3,4,5,21,0,2,21,12,0,0,13,2,24,0,0,13,0,31,14,3,14,13,10,10,0,5,0,0,0,10,24,0,0,0,0,20,0,0,0,0,0,0,0,13,0,0,8,0,0,5,27,0,0,27,13,0,0,0,0,0,0,0,0,0,0,0,0,0,0,0,0,0,0,0,0,0,0,0,0,0,0,0,0,0,0,0,0,0,0,0,0,0,0,0,0],"split_type":[0,0,0,0,0,0,0,0,0,0,0,0,0,0,0,0,0,0,0,0,0,0,0,0,0,0,0,0,0,0,0,0,0,0,0,0,0,0,0,0,0,0,0,0,0,0,0,0,0,0,0,0,0,0,0,0,0,0,0,0,0,0,0,0,0,0,0,0,0,0,0,0,0,0,0,0,0,0,0,0,0,0,0,0,0,0,0,0,0,0,0,0,0,0,0,0,0,0,0,0,0,0,0,0,0,0,0,0,0,0,0,0,0,0,0,0,0,0,0,0,0,0,0,0,0,0,0,0,0,0,0,0,0,0,0,0,0,0,0,0,0,0,0,0,0,0,0,0,0,0,0,0,0,0,0,0,0,0,0,0,0,0,0,0,0,0,0,0,0,0,0],"sum_hessian":[1.155E3,6.56E2,4.99E2,5.11E2,1.45E2,1.7E2,3.29E2,3.29E2,1.82E2,8.4E1,6.1E1,1.06E2,6.4E1,2.95E2,3.4E1,2.3E1,3.06E2,1.54E2,2.8E1,7.5E1,9E0,5E0,5.6E1,5E1,5.6E1,8E0,5.6E1,7.5E1,2.2E2,2.2E1,1.2E1,1.2E1,1.1E1,1.05E2,2.01E2,3E0,1.51E2,2.5E1,3E0,7E0,6.8E1,5E0,5.1E1,1.6E1,3.4E1,3.4E1,2.2E1,2E1,3.6E1,3E0,7.2E1,6.1E1,1.59E2,3E0,1.9E1,8E0,4E0,8E0,4E0,8E0,3E0,1.01E2,1E2,9.7E1,5.4E1,1.9E1,6E0,3E0,4E0,3E0,6.5E1,1.2E1,3.9E1,6E0,1E1,5E0,2.9E1,1.8E1,1.6E1,1.7E1,3E0,1.8E1,1.8E1,1E1,6.2E1,8E0,5.3E1,7E0,1.52E2,4E0,4E0,3.7E1,6.4E1,5.9E1,4.1E1,4.6E1,5.1E1,3.1E1,2.3E1,1.5E1,4E0,2.4E1,4.1E1,3E0,9E0,2.2E1,1.7E1,3E0,3E0,7E0,3E0,2.1E1,8E0,5E0,1.3E1,7E0,9E0,3E0,1.4E1,1.4E1,4E0,9E0,9E0,3E0,7E0,7E0,4.6E1,4E0,3E0,1.25E2,2.7E1,3E0,3.4E1,5.9E1,5E0,4.3E1,1.6E1,9E0,3.2E1,4.3E1,3E0,7E0,4.4E1,1.9E1,1.2E1,2E1,3E0,1.2E1,3E0,1.8E1,6E0,4E0,1.8E1,5E0,1.2E1,1.4E1,7E0,4E0,1E1,3E0,6E0,4E0,3E0,3E0,4E0,1.6E1,3E1,2.8E1,9.7E1,4E0,2.3E1],"tree_param":{"num_deleted":"0","num_feature":"32","num_nodes":"171","size_leaf_vector":"1"}},{"base_weights":[-5.496009E-2,-5.8471403E0,7.3339043E0,-8.97989E0,5.573948E0,-6.776277E-1,1.0863356E1,-1.2139043E1,-3.4967465E0,7.737398E0,2.323047E0,-5.0676775E0,6.351084E0,1.3709373E1,3.1903114E0,2.6483033E0,-1.3187927E1,-4.7614045E0,3.501152E0,6.26947E0,6.536383E-1,-2.6358223E0,5.0909047E0,9.5149624E-1,-6.2910404E0,1.2103394E1,-6.170197E-1,-1.9988475E0,1.5203438E1,4.6780953E0,-6.661076E0,-5.2775407E0,3.4870532E-1,-5.134071E-1,-1.1473836E1,1.8074726E-1,-5.0029063E0,-1.9588815E-1,4.872187E0,-1.2834164E0,7.0621123E0,3.736004E0,-6.1287413E0,2.7285507E-1,3.7953587E0,1.8245968E-1,-4.3749803E-1,-1.0005032E1,-4.524125E0,9.738526E0,6.6778404E-1,-6.118147E0,3.84486E0,-6.3515053E0,5.4239197E0,1.6399717E1,-2.014345E0,-4.699767E0,6.310446E0,-8.926369E0,-3.7574917E-2,-2.184609E0,-3.4313455E-1,-9.765462E0,-1.3421178E1,-6.334189E0,-2.5323508E0,3.5492866E0,2.727448E-1,1.0268105E-2,-7.668309E-2,8.1751795E0,1.4024004E-1,1.5435533E-1,3.8263246E-2,-3.8284028E-1,-3.3831434E0,4.735565E0,-4.8837032E-2,-1.2904537E0,5.937347E-2,-5.9044316E-2,-1.1929428E1,-3.317427E0,-1.0489646E1,7.66633E0,5.0682366E-1,-3.0466104E0,-2.6001647E-1,3.5279351E-3,4.6592083E0,-7.3529205E0,-5.2499626E-2,2.8703186E-1,-4.2003553E-2,8.88711E0,1.7241959E1,-1.4387827E-1,-3.9638877E-1,-2.1346594E-1,5.036396E-2,4.9877608E-1,5.2072945E0,-3.3726364E-1,-1.2277046E-1,-9.3200706E-2,-2.726668E-2,-8.111943E0,-1.3189203E1,-3.4482518E-1,-1.593025E1,-2.5482953E-1,-5.6262903E0,-1.11407466E-1,-1.9866133E0,3.9125745E0,2.8530307E-2,6.753679E0,3.4657884E-1,-1.5120573E-1,5.5295588E-3,2.4711635E0,2.0739312E-1,-7.210184E-3,-5.6047313E-2,-4.1045168E-1,-1.2274329E-1,-4.0463595E0,7.47889E-2,-1.2940076E-1,-4.0670642E-1,2.6940212E-1,1.1128757E-1,-1.358609E-1,-2.8148372E-2,1.835161E-1,8.6523026E-2,-1.2608294E-1,-2.865249E-1,1.3396764E-1,3.0910933E-1,2.0638073E1,1.4383165E1,2.27982E-3,-3.4541562E-2,3.7779806E0,2.53428E-1,-2.793549E-1,-1.0945389E-1,-1.4274248E-1,-4.6587715E-1,-5.777381E-1,-3.93782E-1,-1.807118E-1,-7.4707255E-2,-3.868998E-2,-8.1989184E-2,1.4339027E-1,6.784624E-2,1.5408629E-1,2.3575412E-1,1.0299928E-1,-8.157894E-4,-2.006143E-1,-4.6751227E-2,2.512103E-1,6.575212E-1,2.501605E-1,5.134702E-1,-2.3016417E-2,1.4054655E-1],"categories":[],"categories_nodes":[],"categories_segments":[],"categories_sizes":[],"default_left":[0,0,0,0,0,0,0,0,0,0,0,0,0,0,0,0,0,0,0,0,0,0,0,0,0,0,0,0,0,0,0,0,0,0,0,0,0,0,0,0,0,0,0,0,0,0,0,0,0,0,0,0,0,0,0,0,0,0,0,0,0,0,0,0,0,0,0,0,0,0,0,0,0,0,0,0,0,0,0,0,0,0,0,0,0,0,0,0,0,0,0,0,0,0,0,0,0,0,0,0,0,0,0,0,0,0,0,0,0,0,0,0,0,0,0,0,0,0,0,0,0,0,0,0,0,0,0,0,0,0,0,0,0,0,0,0,0,0,0,0,0,0,0,0,0,0,0,0,0,0,0,0,0,0,0,0,0,0,0,0,0,0,0,0,0,0,0,0,0,0,0],"id":8,"left_children":[1,3,5,7,9,11,13,15,17,19,21,23,25,27,29,31,33,35,37,39,-1,41,43,45,47,49,51,53,55,57,59,61,-1,-1,63,-1,65,-1,67,69,71,73,75,-1,77,-1,79,81,83,85,-1,87,89,91,93,95,97,99,101,103,-1,105,-1,107,109,111,113,115,-1,-1,-1,117,-1,-1,-1,-1,119,121,-1,123,-1,-1,125,127,129,131,-1,133,-1,-1,135,137,-1,-1,-1,139,141,-1,143,-1,-1,-1,145,-1,-1,-1,-1,147,149,-1,151,-1,153,-1,155,157,-1,159,-1,-1,-1,161,-1,-1,-1,-1,-1,163,-1,-1,-1,-1,-1,-1,-1,-1,-1,-1,-1,-1,-1,165,167,-1,-1,169,-1,-1,-1,-1,-1,-1,-1,-1,-1,-1,-1,-1,-1,-1,-1,-1,-1,-1,-1,-1,-1,-1,-1,-1,-1],"loss_changes":[4.9080008E4,2.3050092E4,1.4261215E4,8.698434E3,9.547832E2,4.8082173E3,7.5916094E3,4.9995938E3,1.6610864E3,1.4640625E3,7.946399E2,7.147571E2,2.4146553E3,6.0176445E3,1.4327173E3,1.530037E3,1.4559336E3,4.2736304E2,4.1342676E2,4.6601392E2,0E0,4.874111E2,1.3590625E2,1.1992694E2,4.7487793E2,5.1126562E2,7.0758057E2,7.717848E2,4.835547E3,1.3122188E3,1.4403589E2,1.79764E2,0E0,0E0,5.261465E2,0E0,4.8977368E2,0E0,9.633252E1,1.6809938E1,1.5763501E2,1.4656616E1,1.8615503E2,0E0,1.5407309E2,0E0,2.9536795E1,3.6071143E2,3.6285266E2,2.46396E2,0E0,5.7051117E1,4.5074783E1,5.3339417E1,2.4111884E2,1.2247461E3,6.1823418E1,1.8527304E2,6.75323E2,3.5340515E1,0E0,4.663975E0,0E0,5.0719727E2,3.6914746E2,7.799927E1,2.1631348E1,1.3987335E1,0E0,0E0,0E0,1.14697266E2,0E0,0E0,0E0,0E0,5.959198E1,8.62699E1,0E0,4.217249E0,0E0,0E0,1.3117578E2,2.0895703E2,8.277692E1,5.339099E1,0E0,1.2562141E1,0E0,0E0,9.682159E0,3.00849E1,0E0,0E0,0E0,6.182837E1,1.6030234E3,0E0,4.2907467E0,0E0,0E0,0E0,2.3714172E2,0E0,0E0,0E0,0E0,2.4776611E2,4.2091162E2,0E0,1.2591699E2,0E0,1.7746582E1,0E0,1.3270279E1,7.897583E0,0E0,7.312866E0,0E0,0E0,0E0,2.8340996E1,0E0,0E0,0E0,0E0,0E0,2.4523273E2,0E0,0E0,0E0,0E0,0E0,0E0,0E0,0E0,0E0,0E0,0E0,0E0,0E0,2.225664E2,1.2689277E3,0E0,0E0,1.5224689E2,0E0,0E0,0E0,0E0,0E0,0E0,0E0,0E0,0E0,0E0,0E0,0E0,0E0,0E0,0E0,0E0,0E0,0E0,0E0,0E0,0E0,0E0,0E0,0E0,0E0],"parents":[2147483647,0,0,1,1,2,2,3,3,4,4,5,5,6,6,7,7,8,8,9,9,10,10,11,11,12,12,13,13,14,14,15,15,16,16,17,17,18,18,19,19,21,21,22,22,23,23,24,24,25,25,26,26,27,27,28,28,29,29,30,30,31,31,34,34,36,36,38,38,39,39,40,40,41,41,42,42,44,44,46,46,47,47,48,48,49,49,51,51,52,52,53,53,54,54,55,55,56,56,57,57,58,58,59,59,61,61,63,63,64,64,65,65,66,66,67,67,71,71,76,76,77,77,79,79,82,82,83,83,84,84,85,85,87,87,90,90,91,91,95,95,96,96,98,98,102,102,107,107,108,108,110,110,112,112,114,114,115,115,117,117,121,121,127,127,141,141,142,142,145,145],"right_children":[2,4,6,8,10,12,14,16,18,20,22,24,26,28,30,32,34,36,38,40,-1,42,44,46,48,50,52,54,56,58,60,62,-1,-1,64,-1,66,-1,68,70,72,74,76,-1,78,-1,80,82,84,86,-1,88,90,92,94,96,98,100,102,104,-1,106,-1,108,110,112,114,116,-1,-1,-1,118,-1,-1,-1,-1,120,122,-1,124,-1,-1,126,128,130,132,-1,134,-1,-1,136,138,-1,-1,-1,140,142,-1,144,-1,-1,-1,146,-1,-1,-1,-1,148,150,-1,152,-1,154,-1,156,158,-1,160,-1,-1,-1,162,-1,-1,-1,-1,-1,164,-1,-1,-1,-1,-1,-1,-1,-1,-1,-1,-1,-1,-1,166,168,-1,-1,170,-1,-1,-1,-1,-1,-1,-1,-1,-1,-1,-1,-1,-1,-1,-1,-1,-1,-1,-1,-1,-1,-1,-1,-1,-1],"split_conditions":[-8.5669324E-2,1.0991616E-1,-9.9220705E-1,6.957127E-1,-1.733127E0,8.9159125E-1,3.3353546E-1,-2.0188155E0,1.4816394E0,-1.8874387E0,-9.9980795E-1,-1.0083159E0,1.8193954E-1,-9.846394E-1,-2.0251505E-3,-1.5208492E-1,-1.0096606E0,-2.0188155E0,9.8325E-1,-2.4443452E0,6.536383E-1,-2.2200862E-1,-7.683863E-2,-6.8331397E-1,2.668147E-1,6.3768727E-1,1.4532406E-2,2.1690333E0,5.6919074E-1,-2.14184E-1,1.1280189E0,-8.1644917E-1,3.4870532E-1,-5.134071E-1,-5.337959E-1,1.8074726E-1,1.0552233E0,-1.9588815E-1,1.8697543E0,-1.7377563E-1,1.333566E0,5.272731E-1,-4.4828877E-2,2.7285507E-1,1.4725024E0,1.8245968E-1,3.5552627E-1,-2.1028687E-1,2.474729E0,2.505172E0,6.6778404E-1,2.7259235E0,1.7915366E0,1.7999913E0,1.4721453E0,-4.7137174E-1,-4.5535827E-1,1.4371437E0,4.3003768E-1,1.1574664E0,-3.7574917E-2,-2.4443452E0,-3.4313455E-1,-4.7768172E-2,-7.683863E-2,-2.4749646E-1,-5.262626E-1,5.8450025E-1,2.727448E-1,1.0268105E-2,-7.668309E-2,-6.786821E-1,1.4024004E-1,1.5435533E-1,3.8263246E-2,-3.8284028E-1,8.6440086E-1,6.288243E-1,-4.8837032E-2,-7.637834E-1,5.937347E-2,-5.9044316E-2,1.2014796E0,4.673996E-2,-7.81755E-2,-4.4507112E-2,5.0682366E-1,1.6229211E0,-2.6001647E-1,3.5279351E-3,1.00836925E-1,-1.08379625E-1,-5.2499626E-2,2.8703186E-1,-4.2003553E-2,-2.5421247E-1,3.0522222E-2,-1.4387827E-1,5.1701987E-1,-2.1346594E-1,5.036396E-2,4.9877608E-1,8.9249486E-1,-3.3726364E-1,-1.2277046E-1,-9.3200706E-2,-2.726668E-2,5.67068E-1,-2.939699E-1,-3.4482518E-1,-9.1158085E-2,-2.5482953E-1,2.1024129E-1,-1.11407466E-1,-6.17178E-1,-2.918971E-1,2.8530307E-2,-4.0382605E-2,3.4657884E-1,-1.5120573E-1,5.5295588E-3,1.1403552E0,2.0739312E-1,-7.210184E-3,-5.6047313E-2,-4.1045168E-1,-1.2274329E-1,-1.3997595E-1,7.47889E-2,-1.2940076E-1,-4.0670642E-1,2.6940212E-1,1.1128757E-1,-1.358609E-1,-2.8148372E-2,1.835161E-1,8.6523026E-2,-1.2608294E-1,-2.865249E-1,1.3396764E-1,3.0910933E-1,-7.942191E-1,2.4873702E-1,2.27982E-3,-3.4541562E-2,1.4382656E0,2.53428E-1,-2.793549E-1,-1.0945389E-1,-1.4274248E-1,-4.6587715E-1,-5.777381E-1,-3.93782E-1,-1.807118E-1,-7.4707255E-2,-3.868998E-2,-8.1989184E-2,1.4339027E-1,6.784624E-2,1.5408629E-1,2.3575412E-1,1.0299928E-1,-8.157894E-4,-2.006143E-1,-4.6751227E-2,2.512103E-1,6.575212E-1,2.501605E-1,5.134702E-1,-2.3016417E-2,1.4054655E-1],"split_indices":[12,23,28,14,0,27,28,0,14,0,25,28,4,25,12,10,5,0,25,0,0,15,0,27,0,20,19,6,0,6,12,14,0,0,14,0,14,0,14,5,19,8,5,0,8,0,7,10,3,6,0,17,7,8,5,27,15,14,14,5,0,0,0,10,0,9,15,8,0,0,0,4,0,0,0,0,5,20,0,20,0,0,7,12,12,12,0,7,0,0,0,8,0,0,0,10,8,0,4,0,0,0,18,0,0,0,0,8,17,0,12,0,6,0,6,15,0,20,0,0,0,5,0,0,0,0,0,30,0,0,0,0,0,0,0,0,0,0,0,0,0,19,23,0,0,14,0,0,0,0,0,0,0,0,0,0,0,0,0,0,0,0,0,0,0,0,0,0,0,0,0],"split_type":[0,0,0,0,0,0,0,0,0,0,0,0,0,0,0,0,0,0,0,0,0,0,0,0,0,0,0,0,0,0,0,0,0,0,0,0,0,0,0,0,0,0,0,0,0,0,0,0,0,0,0,0,0,0,0,0,0,0,0,0,0,0,0,0,0,0,0,0,0,0,0,0,0,0,0,0,0,0,0,0,0,0,0,0,0,0,0,0,0,0,0,0,0,0,0,0,0,0,0,0,0,0,0,0,0,0,0,0,0,0,0,0,0,0,0,0,0,0,0,0,0,0,0,0,0,0,0,0,0,0,0,0,0,0,0,0,0,0,0,0,0,0,0,0,0,0,0,0,0,0,0,0,0,0,0,0,0,0,0,0,0,0,0,0,0,0,0,0,0,0,0],"sum_hessian":[1.145E3,6.42E2,5.03E2,5.04E2,1.38E2,1.54E2,3.49E2,3.19E2,1.85E2,8.2E1,5.6E1,9.5E1,5.9E1,2.54E2,9.5E1,2.1E1,2.98E2,1.57E2,2.8E1,7.5E1,7E0,2E1,3.6E1,1.6E1,7.9E1,3.2E1,2.7E1,2.2E1,2.32E2,8.3E1,1.2E1,1.1E1,1E1,1.01E2,1.97E2,3E0,1.54E2,3E0,2.5E1,7E0,6.8E1,7E0,1.3E1,8E0,2.8E1,3E0,1.3E1,2.4E1,5.5E1,2.7E1,5E0,1.2E1,1.5E1,1.4E1,8E0,2.17E2,1.5E1,1.2E1,7.1E1,8E0,4E0,8E0,3E0,1.08E2,8.9E1,9.9E1,5.5E1,2E1,5E0,3E0,4E0,4.6E1,2.2E1,4E0,3E0,3E0,1E1,2.4E1,4E0,1E1,3E0,5E0,1.9E1,4.7E1,8E0,2.2E1,5E0,6E0,6E0,3E0,1.2E1,1.1E1,3E0,5E0,3E0,2.3E1,1.94E2,5E0,1E1,9E0,3E0,6E0,6.5E1,5E0,3E0,4E0,4E0,7.5E1,3.3E1,4.8E1,4.1E1,2.5E1,7.4E1,1.7E1,3.8E1,1.7E1,3E0,3.3E1,1.3E1,7E0,3E0,1.2E1,1.2E1,4E0,6E0,1.6E1,3E0,4.2E1,5E0,3E0,5E0,1.7E1,5E0,3E0,3E0,6E0,6E0,5E0,6E0,5E0,1.8E1,8.6E1,1.08E2,6E0,4E0,4.5E1,2E1,6.3E1,1.2E1,6E0,2.7E1,2.1E1,2E1,7E1,4E0,1.9E1,1.9E1,1.1E1,6E0,1.2E1,2.1E1,9E0,3E0,2.1E1,2.1E1,3E0,8.3E1,2.7E1,8.1E1,6E0,3.9E1],"tree_param":{"num_deleted":"0","num_feature":"32","num_nodes":"171","size_leaf_vector":"1"}},{"base_weights":[-9.08287E-2,-5.924901E0,6.895727E0,-8.980608E0,5.5007167E0,-1.3378906E-1,1.0506322E1,-1.1937195E1,-3.7185185E0,4.3529544E0,1.3514683E1,-6.16831E0,4.4010425E0,1.1656405E1,-9.4454473E-1,9.046367E-1,-1.2916564E1,-4.8891883E0,3.2534864E0,-2.16289E-1,4.9222293E0,6.4148813E-1,4.042193E0,-9.899265E0,-4.148438E0,9.99569E0,-4.7322226E0,8.371316E0,1.5153484E1,2.637416E0,-5.7950397E0,-5.00548E0,7.877168E0,-1.5336565E1,-1.0994418E1,-6.100172E0,-2.507657E0,-1.4825088E-1,4.5122933E0,-7.342531E-2,5.2908792E0,2.1069342E-1,-3.7074927E-3,-4.5458145E-2,-1.1828863E1,-9.68824E0,-2.3868895E0,5.821592E-1,3.868468E0,-2.8539648E0,-9.264063E0,-2.9745169E0,9.383866E0,1.772595E1,4.3608446E0,2.230703E-2,9.154558E-2,-2.2495463E-1,-5.646932E-2,-2.1304994E0,-2.87539E-1,3.590621E-1,-3.3278275E-2,-3.098215E-1,-4.9242553E-1,-8.924833E0,-1.298585E1,-6.2783546E0,-3.597005E-3,-2.7093287E0,-1.2154883E-2,6.0463023E0,5.9104078E-2,6.492882E0,2.8684094E0,-1.7548393E-1,-3.9321256E-1,-3.8480914E-1,-1.9135533E-1,-3.4329915E0,-3.8453075E-1,6.785494E0,-4.938352E0,3.068991E-1,-4.8439946E0,-3.2760188E-1,-1.423021E-1,-6.7211018E0,2.5138503E-1,1.3309532E1,7.6706376E0,1.0496745E1,1.898718E1,-1.2282943E-1,5.438149E0,-9.08207E-2,-2.6570369E-2,-1.366733E1,-7.616536E0,-1.6138945E1,-1.087063E1,-5.9948845E0,-3.597956E-1,-3.5598001E0,-2.0185475E0,1.3232829E-1,2.432088E-1,7.398619E0,4.3163695E0,-1.6584608E-1,4.0243483E0,-1.9290991E0,-2.5464946E-1,-3.315545E-2,2.2115242E-2,8.071994E0,-9.9318944E-2,-2.1851516E0,-2.665602E-1,2.5779366E-1,-3.1340342E0,-6.1391616E0,-4.9859434E-3,-3.1963044E-1,-6.59635E-2,1.6118086E1,3.4189115E0,9.918029E0,1.6393881E0,3.9301842E-1,1.5350655E-1,3.3812815E-1,1.9676483E1,1.0029378E-1,1.8944491E-1,-2.601055E-1,-4.971274E-1,-2.5233096E-1,-1.0939949E-2,-2.331171E-1,-5.373812E-1,-3.5084397E-1,-1.7222057E-1,-2.1385254E-1,-1.5028381E-1,-1.22402936E-1,-5.1760748E-2,-7.68226E-2,-2.8241446E-2,2.843977E-1,1.9663191E-1,1.4531285E-1,6.7422196E-2,2.3765464E-1,8.6854346E-2,-3.7632654E-3,-1.721185E-1,1.0836654E-1,3.1081507E-1,-9.0995006E-2,-2.5312524E-2,-1.3828203E-1,-1.001593E-2,-2.9050526E-1,-8.210402E-2,5.9922427E-1,3.7661007E-1,-2.3969975E-3,1.512034E-1,2.477264E-1,4.784643E-1,-6.9821276E-2,1.966171E-1,5.570578E-1,7.3968315E-1],"categories":[],"categories_nodes":[],"categories_segments":[],"categories_sizes":[],"default_left":[0,0,0,0,0,0,0,0,0,0,0,0,0,0,0,0,0,0,0,0,0,0,0,0,0,0,0,0,0,0,0,0,0,0,0,0,0,0,0,0,0,0,0,0,0,0,0,0,0,0,0,0,0,0,0,0,0,0,0,0,0,0,0,0,0,0,0,0,0,0,0,0,0,0,0,0,0,0,0,0,0,0,0,0,0,0,0,0,0,0,0,0,0,0,0,0,0,0,0,0,0,0,0,0,0,0,0,0,0,0,0,0,0,0,0,0,0,0,0,0,0,0,0,0,0,0,0,0,0,0,0,0,0,0,0,0,0,0,0,0,0,0,0,0,0,0,0,0,0,0,0,0,0,0,0,0,0,0,0,0,0,0,0,0,0,0,0,0,0,0,0,0,0,0,0],"id":9,"left_children":[1,3,5,7,9,11,13,15,17,19,21,23,25,27,29,31,33,35,37,-1,39,-1,41,43,45,47,49,51,53,55,57,59,61,63,65,67,69,-1,71,-1,73,-1,-1,-1,75,77,79,-1,81,83,85,87,89,91,93,-1,-1,-1,-1,95,-1,-1,-1,-1,-1,97,99,101,-1,103,-1,105,-1,107,109,-1,-1,-1,-1,111,113,115,117,119,121,-1,-1,123,-1,125,127,129,131,-1,133,-1,-1,135,137,139,141,143,-1,145,147,-1,-1,149,151,-1,153,155,-1,-1,-1,157,-1,159,-1,-1,161,163,-1,-1,-1,165,167,169,171,-1,-1,-1,173,-1,-1,-1,-1,-1,-1,-1,-1,-1,-1,-1,-1,-1,-1,-1,-1,-1,-1,-1,-1,-1,-1,-1,-1,-1,-1,-1,-1,-1,-1,-1,-1,-1,-1,-1,-1,-1,-1,-1,-1,-1,-1],"loss_changes":[4.621374E4,2.1619906E4,1.31014E4,7.5413984E3,1.140363E3,4.8393633E3,4.5057734E3,3.9404102E3,1.4592478E3,7.725383E2,9.606575E2,5.266238E2,5.201919E3,3.4316328E3,5.700216E2,9.812827E2,1.1804375E3,4.1920776E2,2.7967993E2,0E0,3.100625E2,0E0,9.291991E1,3.989607E2,4.687641E2,3.2339966E3,3.0013196E2,1.8890312E3,4.05125E3,6.388382E0,6.0066498E1,1.306141E2,3.6694366E2,1.0961133E2,5.6188477E2,1.02153564E2,1.9850067E1,0E0,7.7261505E1,0E0,2.860359E2,0E0,0E0,0E0,2.0284668E1,3.1975708E1,8.016008E1,0E0,1.0052042E3,1.8582225E2,9.784241E0,6.212509E2,8.967539E2,8.955469E2,2.870553E2,0E0,0E0,0E0,0E0,4.3651886E0,0E0,0E0,0E0,0E0,0E0,4.1388867E2,3.7160645E2,7.053662E1,0E0,1.837387E1,0E0,6.814148E0,0E0,1.0203735E2,3.6683926E2,0E0,0E0,0E0,0E0,1.6295364E2,1.1843544E1,3.9631323E2,7.435097E1,3.5099146E2,1.0407303E2,0E0,0E0,1.4872733E2,0E0,1.1582935E3,1.4140205E3,1.627273E2,3.5946875E2,0E0,1.3803772E1,0E0,0E0,6.649365E1,2.1004468E2,1.4416797E2,2.7100586E1,5.717163E1,0E0,4.133774E0,1.0060387E1,0E0,0E0,2.9653076E1,3.0207825E0,0E0,1.2160004E2,1.3100433E2,0E0,0E0,0E0,1.8242188E2,0E0,2.5507622E0,0E0,0E0,2.8068085E1,1.244599E2,0E0,0E0,0E0,1.9190137E2,5.683416E1,7.046338E2,5.5176685E2,0E0,0E0,0E0,2.7976953E2,0E0,0E0,0E0,0E0,0E0,0E0,0E0,0E0,0E0,0E0,0E0,0E0,0E0,0E0,0E0,0E0,0E0,0E0,0E0,0E0,0E0,0E0,0E0,0E0,0E0,0E0,0E0,0E0,0E0,0E0,0E0,0E0,0E0,0E0,0E0,0E0,0E0,0E0,0E0,0E0,0E0,0E0],"parents":[2147483647,0,0,1,1,2,2,3,3,4,4,5,5,6,6,7,7,8,8,9,9,10,10,11,11,12,12,13,13,14,14,15,15,16,16,17,17,18,18,20,20,22,22,23,23,24,24,25,25,26,26,27,27,28,28,29,29,30,30,31,31,32,32,33,33,34,34,35,35,36,36,38,38,40,40,44,44,45,45,46,46,48,48,49,49,50,50,51,51,52,52,53,53,54,54,59,59,65,65,66,66,67,67,69,69,71,71,73,73,74,74,79,79,80,80,81,81,82,82,83,83,84,84,87,87,89,89,90,90,91,91,92,92,94,94,97,97,98,98,99,99,100,100,101,101,103,103,104,104,107,107,108,108,110,110,111,111,115,115,117,117,120,120,121,121,125,125,126,126,127,127,128,128,132,132],"right_children":[2,4,6,8,10,12,14,16,18,20,22,24,26,28,30,32,34,36,38,-1,40,-1,42,44,46,48,50,52,54,56,58,60,62,64,66,68,70,-1,72,-1,74,-1,-1,-1,76,78,80,-1,82,84,86,88,90,92,94,-1,-1,-1,-1,96,-1,-1,-1,-1,-1,98,100,102,-1,104,-1,106,-1,108,110,-1,-1,-1,-1,112,114,116,118,120,122,-1,-1,124,-1,126,128,130,132,-1,134,-1,-1,136,138,140,142,144,-1,146,148,-1,-1,150,152,-1,154,156,-1,-1,-1,158,-1,160,-1,-1,162,164,-1,-1,-1,166,168,170,172,-1,-1,-1,174,-1,-1,-1,-1,-1,-1,-1,-1,-1,-1,-1,-1,-1,-1,-1,-1,-1,-1,-1,-1,-1,-1,-1,-1,-1,-1,-1,-1,-1,-1,-1,-1,-1,-1,-1,-1,-1,-1,-1,-1,-1,-1],"split_conditions":[-8.612001E-2,1.2232059E-1,3.6412522E-1,6.957127E-1,-7.4897654E-2,-9.71769E-1,5.6919074E-1,-2.0188155E0,1.4816394E0,4.6613094E-1,-1.733127E0,2.668147E-1,-1.0543472E-2,2.0475304E-1,6.5373E-2,-1.5208492E-1,-8.147915E-1,1.0552233E0,1.891778E-1,-2.16289E-1,-2.5271945E0,6.4148813E-1,-8.134081E-2,-1.0046259E-1,-1.407536E-1,-1.8737636E0,9.3205E-1,-1.360128E-1,4.125197E-1,1.8829391E0,-1.400353E-1,-8.1644917E-1,3.357745E-1,-9.7317034E-1,-5.337959E-1,3.603459E-2,1.0211068E0,-1.4825088E-1,-9.0218425E-2,-7.342531E-2,-1.5179662E0,2.1069342E-1,-3.7074927E-3,-4.5458145E-2,-2.1028687E-1,1.6122464E0,2.0802517E-1,5.821592E-1,-6.366207E-2,-4.7768172E-2,1.1574664E0,1.4371437E0,-1.5454931E0,-7.5715125E-1,1.4244397E0,2.230703E-2,9.154558E-2,-2.2495463E-1,-5.646932E-2,-2.4443452E0,-2.87539E-1,3.590621E-1,-3.3278275E-2,-3.098215E-1,-4.9242553E-1,-6.850514E-1,2.376642E-1,-1.5559322E-1,-3.597005E-3,-4.6757615E-1,-1.2154883E-2,-2.3352283E-1,5.9104078E-2,1.333566E0,-5.5341834E-1,-1.7548393E-1,-3.9321256E-1,-3.8480914E-1,-1.9135533E-1,6.79173E-1,7.904501E-1,4.3764436E-1,-4.4195336E-1,-7.683863E-2,6.564023E-1,-3.2760188E-1,-1.423021E-1,1.6456192E0,2.5138503E-1,2.6361291E0,1.7521699E-1,2.3122862E-1,2.3936927E-1,-1.2282943E-1,4.178439E-1,-9.08207E-2,-2.6570369E-2,-2.3552433E-1,1.0189749E0,-7.022831E-1,-4.579242E-2,-1.2645474E-1,-3.597956E-1,6.144165E-1,1.1757141E-1,1.3232829E-1,2.432088E-1,-1.9360402E0,2.0841527E0,-1.6584608E-1,3.1386968E-2,1.1174178E0,-2.5464946E-1,-3.315545E-2,2.2115242E-2,2.384128E-2,-9.9318944E-2,4.030998E-1,-2.665602E-1,2.5779366E-1,3.2587424E-1,4.0872255E-1,-4.9859434E-3,-3.1963044E-1,-6.59635E-2,-5.975052E-2,4.8888585E-1,7.446521E-1,2.3369682E0,3.9301842E-1,1.5350655E-1,3.3812815E-1,2.6497164E-1,1.0029378E-1,1.8944491E-1,-2.601055E-1,-4.971274E-1,-2.5233096E-1,-1.0939949E-2,-2.331171E-1,-5.373812E-1,-3.5084397E-1,-1.7222057E-1,-2.1385254E-1,-1.5028381E-1,-1.22402936E-1,-5.1760748E-2,-7.68226E-2,-2.8241446E-2,2.843977E-1,1.9663191E-1,1.4531285E-1,6.7422196E-2,2.3765464E-1,8.6854346E-2,-3.7632654E-3,-1.721185E-1,1.0836654E-1,3.1081507E-1,-9.0995006E-2,-2.5312524E-2,-1.3828203E-1,-1.001593E-2,-2.9050526E-1,-8.210402E-2,5.9922427E-1,3.7661007E-1,-2.3969975E-3,1.512034E-1,2.477264E-1,4.784643E-1,-6.9821276E-2,1.966171E-1,5.570578E-1,7.3968315E-1],"split_indices":[12,23,21,14,11,14,0,0,14,21,0,0,9,2,10,10,5,14,5,0,0,0,1,11,30,20,22,30,28,0,30,14,1,0,14,16,5,0,11,0,0,0,0,0,10,0,21,0,11,10,5,14,0,19,14,0,0,0,0,0,0,0,0,0,0,21,14,10,0,13,0,0,0,19,0,0,0,0,0,5,1,20,14,0,2,0,0,13,0,8,4,0,2,0,16,0,0,0,8,0,7,0,0,8,2,0,0,2,21,0,2,2,0,0,0,20,0,0,0,0,2,8,0,0,0,12,23,20,16,0,0,0,13,0,0,0,0,0,0,0,0,0,0,0,0,0,0,0,0,0,0,0,0,0,0,0,0,0,0,0,0,0,0,0,0,0,0,0,0,0,0,0,0,0,0],"split_type":[0,0,0,0,0,0,0,0,0,0,0,0,0,0,0,0,0,0,0,0,0,0,0,0,0,0,0,0,0,0,0,0,0,0,0,0,0,0,0,0,0,0,0,0,0,0,0,0,0,0,0,0,0,0,0,0,0,0,0,0,0,0,0,0,0,0,0,0,0,0,0,0,0,0,0,0,0,0,0,0,0,0,0,0,0,0,0,0,0,0,0,0,0,0,0,0,0,0,0,0,0,0,0,0,0,0,0,0,0,0,0,0,0,0,0,0,0,0,0,0,0,0,0,0,0,0,0,0,0,0,0,0,0,0,0,0,0,0,0,0,0,0,0,0,0,0,0,0,0,0,0,0,0,0,0,0,0,0,0,0,0,0,0,0,0,0,0,0,0,0,0,0,0,0,0],"sum_hessian":[1.132E3,6.17E2,5.15E2,4.87E2,1.3E2,1.75E2,3.4E2,3.11E2,1.76E2,1.15E2,1.5E1,7.5E1,1E2,3.09E2,3.1E1,2.2E1,2.89E2,1.51E2,2.5E1,5E0,1.1E2,8E0,7E0,2.5E1,5E1,6.2E1,3.8E1,1.61E2,1.48E2,1.8E1,1.3E1,1.2E1,1E1,1.25E2,1.64E2,9.9E1,5.2E1,3E0,2.2E1,5E0,1.05E2,4E0,3E0,5E0,2E1,1.1E1,3.9E1,2.5E1,3.7E1,2.8E1,1E1,1.3E1,1.48E2,1.19E2,2.9E1,3E0,1.5E1,9E0,4E0,8E0,4E0,7E0,3E0,1E1,1.15E2,8.3E1,8.1E1,9.6E1,3E0,4.7E1,5E0,1.3E1,9E0,6.9E1,3.6E1,